{"biases": [[[-1.9035668591253287], [-2.146491567982722], [3.1792018313231583], [-0.4489013203933849], [-0.8330521443727416], [-1.0494449878473926], [-1.478938829807874], [-3.18477030646678], [-1.9509298440225065], [2.4417322449468704], [1.1849135112386848], [2.018713703743396], [0.13523935942913112], [-1.447667116570561], [-0.08493515630248989], [0.21556603822345644], [-3.8543033524144517], [1.6195396306504448], [-1.0927281929090875], [-0.613647339866559], [-0.29311685327652587], [0.5814630800768036], [-1.2393366084895314], [-0.5675229036488801], [2.7321190956287964], [1.306251164108077], [-1.1085070492350975], [1.415944028095267], [-2.5096228655921236], [-1.1790367427267243], [-0.5833694100971327], [-3.4088871831107994], [-1.0879526533087722], [1.4275429460294986], [-3.1285327398618565], [-0.38504772534958837], [-1.7591186334359041], [0.9068615395313774], [-1.6149949825838867], [1.2931451376573042], [1.374492378695243], [2.082238555727971], [1.081056289396794], [0.5204214853562563], [-1.3889510401623824], [0.007416908328741728], [-0.9621140493126619], [-1.1555732459157797], [-2.777089784446472], [-1.9025602279008176], [1.5573047883287916], [0.03446308251736451], [1.2317278354913301], [-2.290594954517271], [0.720209002401746], [-0.8559783151959826], [-1.54538844846184], [1.7109743116619036], [-4.492202921852943], [-2.202103422344079]], [[0.5138232265122693], [1.780071526219312], [0.03262571554000586], [-0.09218710710293249], [2.2963947962764975], [0.8019487042350106], [-0.19732454029733082], [-1.4376604852903176], [-0.30363840909430684], [0.8966091261767198], [-0.9044466630670094], [-1.5182108463657462], [-0.34463475447859915], [-1.6097989706883233], [-0.2470697031578254], [-1.043198300862159], [-0.8009226655326557], [0.5102936789878029], [-0.09037808014053993], [-0.7288665290447447], [-1.0234053481442915], [0.5504192494828489], [0.9858895943332976], [-0.75856931179087], [0.40221240738351993], [-0.9861974537915957], [-0.916980965959211], [-0.2856339634325895], [0.2755478278582904], [0.22157824824158565], [-1.5238158602882546], [-1.448009087311421], [0.2419442591757741], [-0.9273160854095099], [-1.0350742205594772], [2.236059310351682], [-0.9364179938675345], [-2.1779940021235533], [0.1862314666705455], [-0.21607059534953768], [2.1879914925115376], [-0.08057206718232404], [-0.6995247191448157], [-0.19229532968911686], [0.8146633916952851], [0.3783394253798491], [-1.4837705225188753], [-0.5498377370652596], [-1.4663507835970007], [0.28923680197477597]], [[-1.7865727830449878], [-1.5136053535730047], [-1.760480824148353], [-0.440973189655266], [-1.2049624403298096], [1.0269084471862977], [-0.2072940523756612], [0.7425670706737664], [-0.5445319387724767], [-0.11772335187362322], [-1.7553489525556862], [-0.21830693967517595], [-0.22321913829254664], [0.4517060158934058], [1.2673087755421433], [-0.7577372813465638], [-0.4825787912649229], [0.594697707170293], [-0.7185872229949419], [0.13554198158277908], [2.0199134899327573], [1.1414886939370934], [0.712789764431591], [1.2034509385647478], [-1.644962697258102], [0.5309651013557776], [-0.2515819936368688], [0.23142063884143305], [-1.3469451403447241], [-1.8937460559518327]], [[-0.46340024675088404], [-0.16723767761929784], [0.897716168636052], [-1.2128355416596726], [-0.639434431887397], [1.4470729635338808], [-0.24610023895830488], [-0.09616667106296811], [1.1464795261865517], [1.0003005866178374], [-1.255134148300377], [-1.0025057534930806], [-0.4310186861127089], [-0.1501724817918939], [-1.1325687399268856], [1.095688874165298], [0.7106181311815146], [-0.7193981649232062], [1.499648716289445], [2.0147055889966845]], [[-1.5406572768754352], [-3.542101079351032], [-2.8230345454421353], [-0.8910994912193673], [-0.5012876404196077], [-3.8356011044451592], [-3.9354551433967355], [-2.29637909054004], [-1.9506695543106554], [-2.091630476244845]]], "sizes": [784, 60, 50, 30, 20, 10], "cost": "CrossEntropyCost", "weights": [[[-0.04772021833927722, 0.014640463602219779, -0.0007127079516611827, -0.02386863762284584, -0.029331911757596973, -0.05876263736006561, -0.006305603936271781, 0.008209868835389756, -0.067773755824094, 0.01548204488829217, -0.054052527469791195, 0.05711928704459893, -0.00976536477649215, 0.012512877466922142, -0.014526180455268805, 0.017270698504246184, 0.037995270961924774, 0.0005551745034661687, 0.0018931749133176132, 0.018046550340215, -0.03993260931810338, 0.05963654358780542, -0.04297977331674211, -0.020452538359241622, 0.11692868223379109, -0.06233513340389629, 0.08225047014966147, 0.06378302298268858, 0.018327032713940455, 0.05845245811636467, 0.037954114237496166, -0.010467110481518988, 0.008764479154144298, -0.0045722455262476895, -0.01281217108118512, 0.01043679773014171, -0.024194602745531736, 0.013995719170391163, 0.006051043405515527, 0.02394560940719728, 0.06050209108537674, 0.03242337426210519, 0.03591743039672686, 0.05403267824526906, 0.021031989119276857, -0.026769214302260452, -0.047315387891190476, 0.015302872827566608, -0.03744389910850626, 0.0033270077458547303, -0.048802043755922696, -0.03745501534883236, 0.028180096640634585, 0.018674988426953414, -0.023486915879754655, -0.010507211320763665, -0.03834715261745618, 0.08368164510961221, -0.0603829615607675, 0.03151897408367437, 0.015708051406696854, -0.03006506063265214, 0.034928272186054925, -0.011379405444124668, 0.03227804739789881, -0.06534751789436714, -0.007363241639957409, -0.0689036243665917, -0.06927191968477063, -0.1888869341342038, -0.19845983618793162, -0.12204287038214771, -0.051259470231701514, 0.004175663880883332, 0.07028869161082757, 0.027239431765073232, 0.04517655810338284, -0.045589344541232125, 0.04191004379223845, -0.03162756599479888, -0.007859321590958118, 0.034184732739604956, 0.001428964284215745, 0.03982262278942243, -0.0011471990709115833, 0.02160798004962167, -0.014958264080448695, 0.04956051600987857, 0.015643007032687267, 0.05187302511799616, 0.0570941173039706, 0.017245031031859863, 0.08909022920476241, 0.062425565036852274, 0.21178168463505018, 0.30132820022124984, 0.543389863958503, 0.46400371327546647, 0.1177022348343088, -0.4116175982195745, -0.5041887531120027, -0.11532381942099192, -0.02859142502947787, -0.15842213339402433, 0.011365721337043555, -0.12412356635582993, -0.012761272390009704, -0.005247079492158324, 0.10002047509529181, -0.0019291441694023984, 0.033836408579454115, -0.0312328707200968, 0.0675862462080378, 0.03873117148861897, 0.034851736867548826, -0.04635591764340493, 0.0475184412613774, 0.013565916762064504, -0.04750737366616944, -0.18047233245590447, -0.018235980966582653, -0.23237743302152336, 0.0050734983444879955, -0.062279237331472684, 0.09458903334945062, 0.529205314585528, 0.32739280705170737, 0.3070478552715744, -0.6148370883374484, -0.3137707851098419, 0.6682331600299707, -0.15679287867370895, 0.14937309364487997, 0.3931939685025285, 0.3088725192071771, 0.2748131413696672, 0.4514924897367414, 0.1158325042101613, -0.004597017804772399, 0.010391977065662151, 0.004864710605105047, 0.009266164398387665, -0.04492202938892083, -0.004517822169720697, -0.006388383858518958, -0.07643509110963077, -0.2437283159872479, 0.09679758419417327, 0.21019412658045852, 0.23406993522631409, 0.31419634179919387, 0.06169941816468137, 0.2503306821844742, 0.35989352338460934, -0.034562314478239715, -0.47022744163182284, -0.396525780050741, -0.15951648959399592, -0.29420923904875773, 0.5532527590335278, 0.9034758371742785, 0.10327708985679247, 0.12522965474533929, 0.08828703802584201, 0.15307221237269303, 0.09598093411090736, -0.004257223635785338, 0.033092920895358036, 0.05020349092203269, 0.0032355367026888587, 0.0030540736966366733, 0.13050767247357578, 0.07989803707630833, -0.10802370311310691, -0.25660890540477665, 0.02430782086397359, 0.13991679098794385, 0.43488116851406927, 0.5255859078045048, 0.4018899856320242, 0.2663670368509556, -0.7515756089308814, -0.7116926026947153, 0.37856769966446063, 1.1469605656563577, 0.6257310036744462, 0.2981853097144027, 0.46043306020077135, -0.01117633192769685, -0.2104392997556281, -0.5119365529347419, -0.2502135990581992, 0.040862333828128164, -0.021016112618169266, 0.03886479675528354, 0.006776556614774812, 4.133531459256357e-05, 0.06274898326219835, 0.004249764578060648, 0.08651045458111818, 0.016735609323851576, -0.34396823516487135, -0.3845933793748799, -0.2817673606621644, -0.24182506492780845, 0.3168294639371995, 0.2685746495351511, -0.2254331106061606, -0.4875301515744454, 0.3030191087295039, 0.28704429137770254, 0.4846108020299206, 1.1199878004036403, -0.3493463203011977, 0.03176494423741178, -0.057038923029651925, -1.083719074230563, -0.6724085205118937, -0.627701013909023, -0.5543618692549147, -0.1329183715212767, -0.12494077141722582, 0.058963134601146834, -0.0025256498419238124, 0.04320328688096615, 0.026109199162235416, -0.03848448529619245, 0.12512218854479118, 0.25851981087246445, 0.28121721515741827, -0.4496906186872721, -0.22379892392898845, 0.4258709861603741, 0.5166476715524296, 0.15295560965450022, 0.1545839530710388, -0.11712455959843056, 0.7596410066432949, 0.6474821864933401, -0.2071814698092362, -0.8300392305169718, -0.43081912464573086, -0.23393884557783254, -0.08493322193323681, -1.2755423088288056, -0.8101100575873661, -0.32967029064071934, -0.4155907352425525, -0.06955396812941744, -0.011556910438507007, 0.043533011298327116, 0.0073465600197195014, 0.03169299553375095, -0.0536347339768919, 0.06002054754665524, 0.46564698479218974, 0.4141896068067609, 0.08097933246338208, 0.3951114680657508, 0.7711585743187876, 0.1730415851873983, -0.06666748950456806, 0.2890397897347761, -0.5665359915700293, 0.2320305714440972, -0.27152056448188877, -0.2653043886946895, -1.1769644096408718, -1.569133236681081, -1.0027032881010705, -0.30591178962435894, -0.4168603696907413, -0.043815327106971017, -0.6702142065347966, -0.14370953036812315, -0.0837701872154608, 0.07230674497885979, 0.004327909642095295, 0.0987205606427127, -0.004187754966478338, 0.03352051396903831, -0.01530112250150283, -0.025882938413178142, 0.6527705274093497, 0.17314222968104187, -0.08151502680563309, 0.6223970205829531, 0.2066651227096201, -0.2657824610126435, -1.0573455602232318, -0.3681447580657965, -0.9701966789892087, -0.7101565595308532, -1.1924165731729384, -1.540683974501444, -1.0865147911801132, -0.9331035042864888, -0.2645909914821947, -0.18296179098530696, 0.46004613098908964, 0.3063003974597012, -0.03756459867558854, -0.25452902205185446, -0.1335043883401176, -0.026841780526343614, 0.004811303054510301, 0.0580164868956176, -0.04768068938699432, -0.015791901617776282, -0.03217742563564351, -0.14895545824879014, 0.2765697306016799, 0.32909845576124447, -0.03913150627466562, 0.20975709233936812, 0.06504288234630688, -0.6150441757812397, -1.0339350798330353, -1.0666680209834511, -0.6282718455908896, -0.6529413275837402, -0.5009849851190532, -0.6570384109423681, -0.3057227200922204, -0.019577981048526805, -0.14044735953505733, -0.5808298227305098, -0.14484029510580437, -0.08787382466841027, -0.2823350093371665, -0.4055726153208506, -0.2260569376674457, -0.027042285549588835, -0.03974417768911632, 0.019950746891466104, -0.00876405872960263, -0.0019827571504602297, -0.014070040871289923, -0.0729754993282135, -0.1191689219422815, 0.1781844744807723, -0.2955932257234126, -0.7335140699912791, -0.9373451626068824, -1.2635748615630389, -0.7423896899903211, -0.8757939364408969, 0.12486887776460805, 0.5222857217307842, 0.6987983452111247, 0.7319790222384931, 0.10667600407006692, 0.5541037721997322, -0.32794859322157455, 0.3401366685967369, -0.9471800396737963, -0.6380322871795409, -0.4146978389354934, -0.4889253647229481, -0.42263145878255426, -0.1203378367845626, 0.017602574839108074, -0.03160005237925396, -0.03082877951680285, -0.0121269891782616, -0.04768304050061881, -0.006144442728559989, -0.004443396337593232, -0.13382672941048468, -0.43124843007060026, -0.7488342638165437, -0.838850136093079, -1.3821818946594897, -0.47015244566453585, -0.14989235246734275, -0.12359911312219825, -0.0263695497335927, 0.7864323129332397, 0.6776874627680062, 0.2990466964449699, 0.6066106919957055, 0.1697185350900779, 0.679685481787846, -0.7409353187213512, -0.6887650194155197, -0.3355504907150932, -0.5940433434288025, -0.44389672356673276, -0.1293830560049718, -0.05756621020298499, 0.04744605107701025, 0.030676175379474858, -0.026696158372567676, -0.04791775655514159, 0.0002545294010459971, -0.0837790553427336, -0.044635592135403745, -0.5529435050600215, -0.6936348367985173, -0.1751442172704942, -0.3089257724646517, -0.32956808064696635, -0.15303162584825622, -0.3291307602205604, -0.11182762696366905, 0.6722799185337689, 0.21047185357202475, 0.2497303798761352, -0.15187380077553672, -0.4802365463465652, 0.5428392804903638, -0.3607114580155768, 0.07790004846569133, -0.3910646244927325, -0.31088187981928433, -0.22710301527883, -0.24572286126599233, 0.04077138781990983, -0.012013066239571294, 0.03605630640303617, -0.0377864629277186, 0.027786099938998596, 0.02047854106311808, -0.15151290826764557, 0.09641893301790498, -0.178071067865121, -0.5915138061463975, 0.0742955411784942, 0.5351487052372504, 0.12735762158333866, 0.422472288228897, 0.04302242276432344, 1.2953710051343679, 0.3444206498773452, 0.7084097105357406, 0.6572175204220495, 0.6141556511301457, -0.07254433593544048, 0.5006444665576552, -0.1758081228002958, 0.06649195750487437, -0.036532747526086144, 0.155169336979485, 0.08780317735111019, -0.05231830657873816, -0.0626418693945758, 0.07326516581753807, 0.013076011074695542, 0.06200274739134944, 0.0031426832911594653, 0.022135306211254924, 0.055940791241678896, 0.16367273549597314, -0.02200040935030559, -0.5680195893795913, -0.19263853970261513, -0.5966135620692891, -0.019687611921217846, -0.6975125953323429, 0.3520635482943707, 0.3080977418263004, 0.5194810103958647, 0.5280236437971305, 0.5600357240786883, 0.5294851523013357, 0.4800183854620309, 0.8095339798907354, 0.5768463588761146, 0.4385237090714495, 0.45825956985805716, 0.4609901091441452, 0.07570584769207739, -0.06308791415676605, 0.0177582108242302, 0.01693782103861615, 0.056331064963914254, -0.03679399250502315, 0.028096317805182625, 0.10180300775428755, 0.18899261516179572, 0.2602152767169222, 0.0025807277061698814, -0.4894750394833716, -0.19504234724215083, -0.5282773973566732, -0.956448943599713, -1.2416624261571048, -0.4905409544695591, 0.2853185991456088, 0.6516420704033231, 0.6660553688258354, 0.06846689774268559, 0.0541190848871793, 0.25325318645386036, 0.11172691309388273, -0.4208297714782943, 0.23920928047031115, 0.8623878846289449, -0.0763999781569971, -0.18432449200575116, -0.39857247027499004, -0.024016250826293228, -0.0347740723847472, 0.0026563309598332924, -0.052391503321213916, -0.06410636426697183, 0.13345685776554037, 0.17251479276883652, 0.15220007600748306, -0.14172993795244987, -0.20419273942968927, -0.17300736545221862, -0.5437959326941546, -0.6933017493608835, -1.0741900544841925, -1.9265602815873146, -1.7823070702520012, -1.2505756442017442, -1.1543980899916353, -0.8061608799186943, 0.49996550682394764, -0.2703902985966221, 0.27715606450356434, 0.15618015086469933, 0.4516276711747196, 0.7069905852504631, -0.10983423646343454, -0.7551509262819748, -0.47165203787778165, -0.02807333704983057, -0.0015177279773818156, -0.011311619291535183, -0.02741564302704952, 0.037024951714120936, 0.058754710003918874, 0.2838554081843916, 0.3453626794027236, 0.04737086329267219, 0.26679825439230626, 0.2049878306853572, -0.7414226357287869, -0.6043715543329269, -0.1224028043962888, -0.1137491645245678, -0.9709771206952165, -1.319893176903164, -1.2845048259497163, -0.4827247634288233, 0.5463982346572687, 0.2694462344265599, 0.2055917345933528, 0.22903772260701283, -0.002164791708962045, 0.24694474991282445, -0.39847184302007216, -0.6067940968449506, -0.33845096461081414, -0.012763889278176033, -0.0014641333836117874, -0.10064819473380214, 0.006950099743792111, -0.11211952189189248, -0.04093302446371895, 0.05837225189464797, 0.3890747177274152, -0.06172139416982036, 0.0076928535265578055, -0.02567634735747227, -0.5261665798828553, -0.354857283868106, 0.14219704952423978, 0.24236155745475538, -0.035525364537301075, -0.5849897205843754, -0.05602302395128093, 0.09504061363724142, 0.39512693211633065, 0.4253184673313572, 0.5575732662095926, 0.47430863195710116, -0.10993464695618764, 0.2341241270147201, -0.18324750027014353, -0.8789515615474058, -0.4990385442660607, -0.1383710713428573, -0.040544782833827536, -0.015054200474669287, 0.043872037088536105, -0.10178874228167549, -0.06088232696502012, 0.14980843791783205, 0.3135460449721487, -0.3240667759323037, -0.01498185668984768, 0.2837286171864706, -0.12138715448430973, -1.3938589554677543, -0.010314955584476038, 0.09537962647971868, 0.6077417519647872, 0.18727242657433724, -0.3460610807638917, 0.10136649060231429, -0.22081653239938281, 0.04371742193397035, 0.16073132823867098, 0.09902193784107696, 0.34646470983133953, -0.2506993912399335, -0.7405738716035555, -0.7942881502525462, -0.425853887218134, -0.04374340513733493, 0.05822167477410327, -0.02345931979394783, -0.01821734944774343, 0.030605341925118736, 0.0035619323938944603, 0.06682900001556963, 0.1668435483222017, -0.25237063139022986, -0.48490565041642486, -0.0875448455724142, -0.21021296759065589, -0.8524535878828222, -0.6434686512392798, 0.8174432838666866, 0.11026845523047119, -0.2625920995292511, -0.27863166106827447, -0.05968895472510519, -0.44792539767175377, -0.38001742533704846, 0.1213974081789155, 0.6730919499943335, 0.3488837190222044, -0.47861391495044897, -0.14609292999866014, -0.35572373353853026, -0.2469932579539544, -0.16634269487506978, 0.00561985020709182, 0.006971190256780554, -0.005845831604627125, -0.03529138344472504, 0.09281680082503976, 0.06584367384853558, 0.3234890819509058, 0.2449351485692081, 0.06549121742111022, 0.14101492604110963, 0.17538476570914657, -0.03431547756005257, 0.2864969918021286, 0.42298468545462115, -0.4185792873654486, 0.378124287476721, 0.42288132224838004, 1.0463789640562662, -0.6690565075165905, -0.48194588180914477, -0.17059054947519645, -0.24173951656091755, 0.2868528865444607, -0.22249199559719413, -0.07639795023841861, -0.2122339871290653, -0.09611263985177369, 0.017205423942355157, 0.0024234508426438767, -0.01719881571509199, 0.04536141463932197, 0.04795615110227051, 0.0394476105394478, 0.07746874382065318, 0.20025655425303954, 0.2112259036979004, 0.28989731297039845, 0.5294188605683781, 0.43651571052207155, 0.972023153556624, 0.7203963434957542, 0.48479977763099236, -0.007170070050474279, 0.33960822409278935, 0.9296167280212894, -0.05136177108267292, -0.4878079710485309, -0.33307064050095353, -0.540045178015944, -0.5914775294258384, 0.2515347196501554, 0.014210475912179582, 0.0004933817889802091, -0.20527711813449415, -0.12832786899855547, -0.08024205209117638, -0.02484079721052843, 0.03845623959917803, 0.01716248479942622, 0.02020074178765114, 0.009057263397389326, 0.07520055682122911, 0.11636495167274416, 0.1856635631569005, 0.21475040123110595, 0.17587567704059276, 0.2387419688688537, 0.7287535605164436, 0.8314674659499998, 0.0669090579489433, -0.01753528204709389, 0.05037964286466076, -0.2430936658804062, -0.010112473460728823, 0.0693282556222934, -0.5666656091808212, -0.5339870910032879, 0.5222211841269104, 0.5063905316926578, 0.2621288642668721, 0.18840026772681331, -0.05771785548704339, 0.021855373898895622, 0.029356423128580954, -0.0021499374194028312, -0.030244496193268296, -0.05183173661933668, -0.004646453401940509, 0.035454087691672846, 0.01597791025981801, -0.04372083239110985, 0.012215685319386946, 0.009370182426840986, -0.14026764333453148, -0.021058846825510773, 0.042570443619010384, 0.07218540450067659, 0.018567708341285787, 0.31797061808503624, 0.20239347583910985, 0.18391301170376853, 0.24429801056468944, 0.07896979536827717, 0.11516826819581949, 0.14347797753387942, 0.329059125914833, 0.36887436651013267, 0.19144927838891732, -0.0037524338175420353, -0.013140215312620055, 0.006299233454008865, 0.010123751530268853, 0.025069103918403394, 0.00982262687140631, -0.007619191702904912, -0.06961761720531139, 0.012366262285857368, -0.007175948998299253, -0.0036907690312497077, 0.025647757880072578, -0.003543378252609773, 0.026266026708497807, -0.04997495922991191, -0.016034248313799068, -0.003891673596673365, 0.050874005435199605, -0.011877611730091416, 0.01843758390614447, 0.03015630842909075, 0.016188901798240177, -0.03897155823215873, -0.03963813625387842, -0.02855858493143891, 0.008694869361278716, -9.840158302005877e-05, -0.02786360609380025, -0.015894914538428628, 0.0165301082994458, -0.01521473109711413, -0.020524826123519208, -0.02103742474289068, -0.024622841288173755], [0.009691988968656728, -0.02008523382224564, -0.0041666914094312035, -0.04071040164686387, -0.027225232304415585, -0.022529843303107, -0.09160992662662293, -0.03525908444543977, 0.02473940501221448, -0.024488773513842346, 0.019703643658281655, -0.024934909106130793, -0.023104200916769648, 0.04117078254584139, -0.04541410426041796, 0.03461786499618915, 0.042532208017561586, 0.041704398169951716, -0.05667904345972541, -0.005949322074883442, -0.024304106761622226, 0.029991616294671893, 0.04675361186988999, 0.012941137483237187, -0.016488091395766936, 0.032493290923275214, -0.03086695282679632, 0.07266741498991708, 0.007717431142949253, -0.01376784503112911, -0.016591855647053115, -0.013716378895084525, -0.03675170615229548, 0.0384002059439496, 0.03129691261081104, 0.01882343382316817, -0.06145459875351172, 0.00583717282696235, 0.03830782123437985, 0.07116464156971634, 0.05268434346247799, 0.02057461948287213, 0.01590611700088232, -0.0053144294759736345, 0.048892109146454324, 0.04579532006274286, -0.03240626981128028, -0.008930434804954954, 0.021606583110838497, 0.009493123161254122, -0.06436479605786949, -0.052070710681180514, 0.019685050664210443, 0.03627595341544944, 0.031069149870929354, -0.04367702994894457, 0.014331816259284504, -0.033766378294625594, 0.06322795013370104, 0.05115434313725907, -0.03768266392364489, -0.001953240974477666, -0.0023471443283740712, 0.03686123063328427, 0.05012658218743003, 0.11642880599906683, 0.13068684475728934, 0.056087460054469525, -0.009507460342037507, -0.5595704185058271, -0.25864666077956566, -0.20433288508715317, -0.2145617690378013, -0.015476352073906968, 0.029476662566118944, 0.04127020950054054, 0.07756920980591257, 0.048072443361428976, -0.014060151061282547, 0.04202556094028764, -0.0206022508253513, 0.059255739910141166, 0.022062009029322108, 0.0637243627792947, 0.024142426182349144, -0.01678378722233453, -0.012614567131795004, 0.004315106516179546, 0.02825466643236156, -0.09462750622806478, -0.07540030135935245, -0.1224130803264092, 0.0004936991697199223, 0.10811126789800632, 0.07655845423543833, 0.4106369545958086, -0.05472286376727102, -0.10480441202337815, -0.1350137369508488, -0.6728106221097491, -0.5443582127759746, -0.6716328910349091, -0.6821787312431133, -0.2713725476465967, -0.37974943704753067, -0.13208769664056222, -0.08873698360506992, -0.05611880342576441, -0.05618910989711418, -0.2371142919086166, -0.04018763290015648, 0.025692883234435297, -0.039667927581684186, 0.040293778204779175, -0.0037963203468123355, 0.03536199329951582, -0.00701334374795677, -0.04609741662830475, -0.09359958038020509, -0.03725977354105856, -0.1229058173840579, 0.002746943161166252, 0.24293930927586885, 0.29923921787736574, 0.25038592312639324, 0.11799489618697864, -0.03008228172168577, -0.31006649578504947, -0.022094322155307673, -0.3418531505655678, -0.565154669863852, -0.48572868095652194, -0.6843298359969487, -1.0108982792456873, -0.3392691712543052, 0.011472960713273556, -0.15094814861777436, -0.2115490378979985, 0.001220828195279555, 0.005153206570736748, -0.009608035363102197, -0.03413097547989026, 0.033926777945553425, -0.028175293783764262, -0.07625227273198558, -0.37782779548891904, -0.15309452867432566, 0.04114770386829139, 0.1473445328536086, 0.014374604743045846, 0.6234150347971225, 0.6760498265843431, 0.39748224715663716, -0.02992082842650216, 0.08356836540723035, 0.5238328392765996, 0.6583566298835355, 0.8806015992950447, 1.2348919214636196, 0.4988485932938087, -0.033245197638373844, -0.3845101532210294, -0.6098576673979929, -0.14622683800526862, 0.08522980177332057, -0.08859051958237385, -0.015507392481832185, 0.034775249206547634, -0.04799495430424842, -0.007502470273243441, 0.004020123847895044, -0.10844580495664087, -0.3083927992867727, -0.25395903276786463, 0.29082693797821796, 0.43771515258420685, 0.2529922765026859, -0.3027885504934166, 0.2977059413156855, 0.2488911436500739, 0.001417928319030259, 0.1300040134554482, 0.9892719875626328, 0.5052193626720202, 0.2447366974788021, -0.7029370631593505, -0.09976099684373976, 0.6694148771731135, 0.5979115198441911, -0.13515722991443627, -0.26112953960778296, -0.26274182214896014, -0.05649254373931268, 0.014766688038171487, -0.020239453015292414, 0.040842173075571586, -0.0524319891654831, 0.05118556803689263, 0.1380481414505943, -0.3711248537609188, -0.38198829776316323, 0.238009289630337, 0.09038535016589293, 0.2306464269147199, -0.2738366100421867, -0.03311685535867077, -0.3536657478358563, 0.1673876713527193, -0.6075402016850024, -0.3417533646752499, -0.34388791263122, -0.3632792424475262, -0.6301118651414764, -0.7312705427179422, 0.5612485590045818, -0.11842318067408769, -0.4325334251662795, 0.5123039297224297, -0.04578133836576531, -0.1337401668686043, 0.38851997490919316, 0.2573108782318496, 0.04245648451296783, 0.05231261503215219, 0.019348163461657023, -0.06912033223928829, 0.0644625643663542, -0.3549241355813391, 0.027834831252477304, 0.5514071615074085, 0.7401037531500319, 0.21028708705897728, -0.03021336501059331, -0.07826013094803388, -0.03225877373424821, -0.026849874103509128, -0.5242450822666909, 0.0487272239441653, -0.24533997347741082, -0.46588211279592906, 0.25295412584026944, 0.05678035579134288, -0.07513926099767262, 0.018049381503628007, -0.052571401377233554, 0.5090038712638298, -0.22679819343150123, -0.08520006727596961, 0.3001545415380344, 0.11472662290824188, -0.05766439504576493, 0.05166443001221266, -0.037349921230534655, -0.012394429935542978, 0.040847462884705615, -0.23196809431076915, 0.1999795000578744, 0.2908538548986417, 0.07527957762052971, -0.19830949481222648, 0.05943518437784224, -0.2933703328910853, -0.13611729062466074, -0.22415109721923265, 0.19077188400412542, -0.3411150658791213, -0.46206021271940173, 0.2575429119990719, 0.005381621047806761, 0.07726563218673667, -0.2402460754699454, 0.0907973110328611, -0.191076730565442, -0.10524836246083828, -0.33899443067218843, 0.15467708217856116, 0.11603674849908818, -0.3187045638311861, -0.33602858299999727, -0.39609166737260937, 0.04091259141618029, 0.003687778558428919, -0.03499845960916265, -0.11758023389192236, 0.2767118305587979, 0.21348426920961172, -0.11944067534535259, 0.490381475119478, 0.4186975991877904, -0.08183438442487063, -0.2948269341734438, -0.24005874678852734, 0.2969680311657413, -0.07019607891951028, 0.2243970716598175, -0.015877108579398114, -0.4173105245546254, -0.71373917218885, -0.3541497065411478, -0.5522622781810658, -0.5866934596552071, -0.39032366915200695, -0.19761280436791148, 0.12008572850163247, -0.21985632003280178, -0.5675114179554591, -0.27849698235582115, -0.1008747839093047, 0.0322538172983134, 0.002891972678286863, -0.06770879706157037, -0.11080170939449213, 0.017307939309414544, 0.2888017600069587, 0.11864642068417833, 0.5955036381500758, 0.36891146462208046, -0.03415967789320369, -0.5587228297144717, -0.09322022746415415, -0.18082979901735893, -0.1744471674634303, -0.7277561186456187, -0.3238220935911021, -0.3888822118480079, -0.4628383080915543, -0.6859808569634285, -0.4210974297738596, -0.5109573837824979, -0.8630159803704153, -0.5740471702857273, -0.08255639695812383, 0.24201399635545998, -0.04765082320637656, -0.01870633955050004, -0.014627539360617621, -0.0039960601361417785, 0.007616675190049005, -0.04254123499043417, -0.09068581353711799, 0.054986627545534815, -0.30196999738601166, 0.2891403101459647, 0.9182239950449502, 0.7413232424996419, -0.014270244497963177, 0.08776296310923815, 0.37178352856740055, 0.14136556755633695, -0.3488700747386826, 0.15917356094893523, -0.37280722081410883, -0.90380133073848, 0.5518372349296952, -0.26317638126075993, -0.14474895706061966, 0.6387440568948349, 0.2998769088238218, 0.2797478363480905, 0.40344788030149825, 0.681257627145819, 0.13025698971059588, 0.040785928843393736, 0.03515988461447856, -0.024344578352455053, 0.05704062224406076, -0.0620858100700908, -0.13501576076249225, -0.04279877131722189, -0.29954085357615706, 0.5019025643125256, 0.6009475586101268, 0.20649457432992924, 0.12862913006306387, 0.41980968032225885, 0.17927930082109775, -0.3884204152208227, -0.010874995548517305, 0.4113872301613416, 0.03817005525333432, -0.3454677474286662, 0.4189776841408095, 0.11088201540429057, 0.125558491932581, 0.6395322114024617, 0.2874870982735509, 0.7219664417072397, 0.0910663300421599, 0.20868935908916547, 0.0570189378438285, 0.06834491393908579, 0.052282812220573016, 0.08171675689667013, 0.026568631371526822, 0.015378433258111024, -0.08435630004942883, -0.05271500050322169, -0.06508100204487531, 0.18982842580462406, 0.11978968057205107, 0.4881967848994895, 0.6243024608288037, 1.0844233063329978, 0.8489993706699029, 0.2549476594324849, 0.5103807128841065, 0.09977177698509626, 0.5802540915441503, 0.6806266324664507, 0.17283117666148198, -0.26494603105071074, -0.3083546086814285, 0.429565849550421, -0.2888863639239307, 0.2533587822261346, 0.25235362356505714, 0.2536544119157043, 0.1826095046363529, -0.00523913916107121, -0.04169421449149926, -0.020884995038697333, -0.017422993060797774, 0.015404440447115777, 0.05082449127922677, 0.0533112137390627, 0.1659787157309375, -0.4068925704923904, -0.24373723843981626, 0.39316573268652383, 1.427115691241777, 1.4326110746956902, 0.9486029251624611, 0.867098956817753, 0.3865242832605985, 0.34998806907207386, 0.971265519815412, 1.2030548312681477, -0.07558597784000796, -0.4292275131239813, -0.19588733755526383, 0.15807867841935283, -0.3664243582379971, 0.1336653449988773, 0.5747291545367013, 0.5461805892143929, 0.2153330075107934, 0.030473896110288674, 0.003500079121904958, 0.043371632962847184, -0.008761740940458132, -0.054139532398328055, 0.03241648645979433, 0.13274727522863547, 0.21140840244364134, -0.023069635445275676, 0.11463279233902263, 0.3367565186590072, 0.7441414559083274, 1.324202824702445, 0.7589895789180854, 0.574207757537491, 0.30481803572743144, 0.7588096614381277, 1.4206635189660326, 0.344360413215865, 0.05299858714617563, 0.3780484085033364, -0.014686467987055482, 0.1457412420061247, 0.10605419370710754, 0.4691266584344253, 1.045995701359076, 0.5473187186632438, 0.22633238304426453, -0.05411540784930224, 0.018029328700901903, 0.0007271768037979493, -0.06302465609098865, 0.01016817894196485, 0.0697470297389757, -0.11396935208979227, -0.009822374500436076, 0.059151643184851554, 0.6173189644204993, -0.12885943352648127, -0.03459791259027602, 0.24563647052630752, -0.10830236827195977, 0.07684894835919798, 0.3552528126664741, 0.4255887956192922, 0.6518174831453674, -0.039081350431382514, 0.2622727019385398, 0.23857523246010215, 0.012108716046476075, 0.3417046891008907, 0.4773103563378092, 0.37564829475741424, 0.7603098243874401, 0.5324125408675111, 0.2610626391789846, -0.059327718097249876, 0.015984869518969557, -0.019019658958652246, 0.008733411682646732, 0.021826711219665253, -0.07611932756405912, -0.42324281342470516, 0.10041487791121907, 0.6269623873853413, 0.342914304649383, -0.49349023727422486, -0.21993429208914997, -0.0667583673148907, -0.6879511984503954, -0.5600490522562782, -0.4322003246655006, 0.1348135367982976, 0.7787205067312581, 0.48073478123592317, -0.30858444708708627, -0.6701466080647581, -0.4442809764772758, -0.7923582224550576, 0.4950086469457055, 0.38233905709326405, 0.2794603151860348, 0.3764505989000359, 0.2559088586840086, 0.018118413067201772, 0.03431550019000167, -0.05995812595536012, 0.06432455237160058, -0.02684524162826407, -0.40090641214620404, -0.4357180591164107, -0.014754766508600647, -0.10423289033310165, -0.401538140703424, -0.5245627937519499, -0.15717245209828593, -0.26167706039424166, -0.6925983579336583, -0.902455547502582, -0.2437335154978426, 0.5202168771944312, 0.36707739637157893, 0.5667787392949994, 0.699201399038739, -0.8791507469141063, -0.9696417199153606, -0.09037201429691906, 0.6560605120365504, 0.21697192406792473, 0.1746610653891603, -0.20843026051711425, 0.057071772533301014, 0.026112208780699593, -0.029791035570672184, -0.029693493074880423, -0.038251965331007956, 0.07282684552623415, -0.03874733258582827, -0.1769331631160442, -0.20095020397080424, -0.06665326858143479, 0.12011566713769786, -0.4729023019678226, -0.5044441578597003, -0.08567211116974259, -0.692973481528166, -0.7615236432391294, -0.09773281572426455, 0.576712038086133, 0.8799621082204265, 1.4984772892015894, 1.0814619751752326, -0.1066231152060668, -0.31211151358989575, 0.206769331836014, 1.026712120286942, -0.05283608667978416, 0.05465994765356035, -0.08893932295909782, 0.12723088556995038, -0.056829494410476286, 0.01283749664481354, -0.06470111022270313, -0.06468675300394987, 0.17069929800251946, 0.24813549144887362, 0.16936418659056843, -0.21863865361751794, 0.3459761980909693, 0.6580304177881497, 0.42095539636548523, -0.4611269333625407, -0.6390840508175544, -0.03710507874302297, -0.49878757926246087, -0.14913634859926678, 0.4352412070414633, 0.8412733445859412, 0.8673057120324278, 0.8793633194468815, -0.5911610856085355, -0.28274263402522515, -0.32185669380108073, -0.15237741696009804, -0.1304825809441323, 0.061910447188959675, -0.1342758715527318, 0.06809278552766664, 0.14299156687493592, 0.06915200627025966, 0.04830160285559711, 0.002901939877165989, 0.040816745556796465, 0.15410740737035683, 0.0074597657424532796, 0.09764844819341303, 0.38740011072891195, 0.505377433001679, 0.4442980828784071, 0.24491206500808219, 0.46038699706720365, 0.47541986068210806, 0.16537960528738146, 0.5942387478184291, -0.13922677227021066, -0.055999015870815856, 0.8305672599866494, 0.2789986869326052, -0.005399962565816534, 0.09509365720131757, -0.1788257662044281, -0.28500684062031273, -0.2087154739657021, 0.08927263753621917, 0.08527198109593748, 0.11220308644276825, 0.015262709726514095, -0.04088751612396517, -0.02420719278637306, -0.016938988383533075, 0.00475147027929783, 0.08150740795553812, -0.03350586234816546, -0.09312713494585056, 0.3540668523689562, -0.092300444721488, 0.5211268399749327, -0.09440854704259194, 0.6404344693508008, 0.5771842441394591, 0.11928045272603131, 0.35448156865308283, 0.21047940466095538, 0.2987849575712119, 0.986314293844779, 0.2603646323360104, 0.08888416438948434, 0.0190434321011891, -0.4705045940986844, -0.20945568171061288, 0.10228730055987845, -0.06988483657977186, 0.04582293501700446, 0.14222357235915215, -0.028196947194629122, -0.06756887545104642, 0.012531132804961799, -0.04300867120521513, -0.0035062315399353094, -0.04126747311052476, -0.17515265150760603, -0.48049321287143903, -0.08923526319912281, 0.2846244123497968, -0.004634159392651001, 0.47521508983292476, 0.09160872123279284, 0.06586582869274639, -0.10147015395043978, 0.4661679034916736, 0.7122434311893008, 0.8486402852635904, 0.48111043796894204, 0.32621317487132834, 0.2741077359025807, -0.18721645355838146, -0.3615454303347948, -0.015606351428083462, 0.030842132055142253, -0.08746969070665411, 0.060035458687064724, 0.11919114759607913, -0.03002872444124564, 0.0005031186225428396, 0.036214171303044634, 0.0073236281248591694, -0.04433722793464069, -0.0031003565118749585, -0.14699478023590057, -0.3723778956595079, -0.19043576857019992, -0.31899667424659245, -0.05681484648843858, 0.20726659547765036, -0.2672384576824005, -0.7122445485373484, -0.6864712324526878, -0.18849916166317704, -0.3264798372943192, 0.3117630414774378, 0.16766328292231214, 0.4356293017464128, 0.3584229061307777, -0.1074311744808431, -0.07766913658172922, -0.10063696162183541, 0.10924567491236409, 0.06164009183579631, -0.003307236602565015, 0.07648421109374909, -0.006122158167135877, -0.05844062869209255, 0.03661669221551842, 0.04115730914206835, -0.024685280590155276, 0.017302541015786998, 0.030213571563884843, -0.19010823913777808, -0.1092859349352009, -0.11924103719389247, -0.19681622262647597, -0.3206686103956612, -0.04775515760585315, 0.0023361981153515246, -0.11477939286681452, -0.0235521534936012, -0.09909228030132217, 0.3063941617967201, 0.2780242314758683, 0.29216410113997926, 0.013843114522201, 0.055184146947426696, -0.1586297099043303, -0.1078265252143831, -0.04909664912473398, 0.028737904006241995, -0.007574134987968618, -0.02936179234972483, -0.01135387432297021, -0.03302376312464797, 0.04522212575072718, 0.04917532473360422, -0.0344529682784378, -0.01597623425161907, 0.041160311507440955, -0.04687561573242853, 0.004918101584574834, -0.04644542582538617, -0.01995927546231236, -0.0008948055472580553, -0.0004769414300702694, -0.12285514825966967, -0.032958002065315836, -0.006208576025148977, -0.013524333089241726, -0.04580196015520677, -0.07624828950336653, 0.03526280780884973, -0.031026972125083107, -0.037675806780336656, 0.0123295992355941, 0.014864504921046287, -0.030774885533343364, -0.006423515073230359, -0.028028117882991452, 0.055696829911014524, -0.0422758295122754, -0.016310559288357562], [-0.04040879107752185, 0.036057304584849015, -0.0051038620047124455, -0.0565121293402241, 0.005806142020495612, 0.036374172510882506, -0.06431207953694196, -0.07717531711234764, 0.02274404160798503, -0.02479234793331813, -0.0588286879210425, 0.030712191385537897, -0.07644539396425193, 0.0014874451189884068, -0.06549602748521934, 0.006729714834777857, 0.035314167146477206, -0.025410040687123183, -0.016450720374872697, 0.02871495897569888, -0.0036294446078540057, 0.006817517524105545, 0.013789291292081339, 0.0035273321279378628, -0.0625789794667707, 0.06834910732057974, 0.022205128233708193, -0.0642931395870617, -0.04146572920351631, -0.03936926121327933, -0.036898031436290904, 0.023047726812263962, 0.048690371569342715, -0.004646644914773393, -0.027063588083406254, -0.029586675720333685, -0.06104348528276721, -0.04680195767645613, -0.004828277398379639, -0.05811323718802897, -0.04298037819475549, -0.04649136355447029, -0.012321146028744246, -0.053665482627508386, 0.023390306878969234, -0.026658506009760823, 0.015496148515275079, -0.021254313072862723, 0.0052801291022083734, 0.05085391850181678, -0.009160641626300117, 0.03075637992288408, -0.02648477283981516, -0.028173057018932263, -0.03091624124208849, 0.04062246792459841, 0.03510932222703095, -0.01080442311834731, -0.0058903816782518445, 0.05684074005757975, -0.022038192692302616, 0.010224917748807903, -0.07437845439846878, -0.029742205362877118, -0.0618853361004627, 0.04005755128608446, 0.0043931165429076866, -0.0014775477120011389, 0.07834009029863105, 0.2396093462527662, 0.011357883849135423, 0.0011743197704317228, -0.10803941786888734, -0.1701990340105064, -0.06515025443056412, -0.06518239650251997, -0.034783049026560646, -0.04084924026324273, -0.016689799148666803, -0.05967515187259117, 0.04017261097230997, -0.005599962423468231, -0.016939817952772857, 0.05215894128985063, 0.07026038737581088, 0.07362384875777565, -0.055152593190991125, 0.01830407224024426, -0.03963018961344341, 0.004153955803979863, -0.08749999043359649, 0.015851216242323093, 0.052192359394447496, 0.01388515397245751, 0.25015265223098365, 0.17432305385660404, 0.4045976911462508, 0.2691497472651579, -0.191365516608323, -0.07199129749388489, -0.0065237821748530865, -0.05660913129226723, -0.06296033145115094, -0.49372285310889275, -0.16799195218843155, -0.11883752085006771, 0.060601112116915844, 0.009775822499366453, -0.04922106704034361, 0.005754237459600072, -0.09597678816314505, 0.06314211808918879, 0.018713798108021398, 0.0055170554816377435, -0.03774178931236334, -0.009978112381137622, -0.0015843380452979458, 0.04940290900811704, 0.0713456574858696, 0.107958292318514, 0.1305515986330419, 0.214309389400891, 0.6474304090187006, 1.1675084295455231, 1.110963380803713, 0.6452424239415381, 0.4908320685486801, 0.6907496269398365, 0.08383737854170809, 0.2641510382657548, 0.404456555854678, -0.5382183831277306, 0.007664740593571824, -0.630292982988113, -0.6028344153090606, -0.1852178781277975, 0.16758143100153064, -0.06397269369090977, 0.0802432403985708, -0.03356604990652619, -0.0027652695663879534, 0.010093992344724403, 0.025408954267619556, 0.01572328246623229, -0.05164975570286909, 0.26605516465806106, 0.3373252806050889, 0.22500988138694009, 0.19253136986590327, 0.3555562740753707, 1.1025706955375323, 1.108249414607971, 0.2613744729790465, 0.8125071243406512, 0.1401432701875506, -0.07653040280147932, 0.4969446270139792, 0.43114902063212657, -0.741508751007074, -1.1456022449875964, 0.3349383464132516, 0.5551204638951297, 0.1489759530467674, -0.011924538053908073, 0.05384428536340006, 0.20801568731971934, -0.0682866364334658, -0.05097908533178716, 0.04985549727604201, 0.038934117145312114, 0.022230941134417304, 0.053339710261004813, -0.22318030308963413, -0.08566898226114643, 0.08582288491030389, 0.37146578337797315, 0.4097673391019176, 0.785294557542171, 1.2798393030724544, 0.2842664594589416, -0.6453408597141677, -0.6861225586419863, -0.21840703407109238, 0.396032818746518, 0.678161592798671, 0.7532494059847183, 0.980188914300454, 0.17398765585117743, 0.7594348035233439, 0.602364710454343, -0.5502745761063017, -0.8614165326319738, 0.008969930692740791, 0.2894714503768738, 0.0014540163073924462, -0.12423273816121194, -0.026466173938167803, 0.0866361727154921, 0.04512542956977266, 0.07279020584467184, -0.317788111127957, -0.4476048152282704, -0.03292699902761336, 0.08938934273862431, 0.7097899877760809, 1.3066654364496693, 1.8639748157944183, 0.3412799452764988, -0.03169153853972741, -0.595406208076421, -0.6619283838171589, 1.1802884113496326, 1.0047161565933624, 0.8040537433213338, -0.034737742526726734, 0.5119632749483973, 0.057230353361853566, 0.18244686533840243, -1.1188132260068924, -0.10388652930326013, -0.0680686700987819, 0.11465573994896068, -0.16268354959503264, -0.1524175695901736, 0.014476234123589603, 0.029626037526197482, -0.010951448945957053, 0.003333364673463735, -0.2498546862173248, -0.3810335032156536, -0.2030706379061617, 0.0880941161856711, 1.0459472906086325, 1.576605026195041, 0.5133093087265617, 0.04702467567368409, 0.3297968335795624, -0.941502498803226, 0.4194563627652623, -0.17902557118199516, 1.1646092568648916, -0.0040126136224826955, 0.5789812731037363, 0.13006247710254892, 0.1978723613235206, -0.03176187288146748, -0.44011191417684153, 0.12544228884198882, 0.4272248249640561, 0.3018671545153121, 0.009489498587116386, 0.045211653745982204, 0.014450863816495017, 0.016893878534614444, -0.0017884178354343383, 0.0455791312407808, -0.15374869391540671, -0.33560844430061015, -0.13276071744244552, 0.25361250902716514, 1.3282030768476532, 1.3493008213741406, 1.04530440633612, 0.9855817106208263, 0.312545230257625, 0.14279659020034066, -0.34137685865260575, 0.7068184054500384, 0.6700142682985158, 1.1950739419549126, 0.3974857048223252, 0.14095730913820853, 0.4141672209712864, -0.14434160749002944, 0.5477713587881557, 0.869042751796304, 0.27451476122226953, 0.3267134862780955, 0.15867821223319528, 0.07843975617203167, -0.009264777969662477, 0.003399076121017099, -0.041034476815258875, 0.055665631175919, 0.14218834939178815, 0.0369427537243315, 0.346408824527593, 0.41463155409989444, 0.9032773707612931, 1.192959431335877, 0.7148372926435234, -0.08445627585779526, 0.32143342022148813, -0.08250575011732789, 0.00037654398274429996, 0.7363635880475607, 1.0055229938368646, -0.012995013377498539, -1.0691772915283395, -0.05281226475666067, 0.45136543984537314, -0.032070865584316516, 0.42062039559794434, 0.9548856873576212, 0.5292899906612887, 0.4132372939540049, 0.14737757465069712, -0.012235007864583055, -0.07502780111580967, 0.021483861138989993, 0.02752698188169032, 0.2715236635545939, 0.608859190546946, 0.28937841173092516, 0.19288582895072443, 0.10634607167875706, 0.1756306897378813, -0.1581605842717256, 0.012418189076771887, -0.05545003754751639, -0.14422358543901911, -0.07438303144892984, 0.86503482087885, 1.7383226687703368, 0.6796731267084525, 0.42463903832490263, -0.020200120381013594, -0.22572421165558287, 0.25221228978357507, 0.08964093645874979, 0.5669291905083901, 0.3999610901816505, 0.41835821051962085, 0.19983303192252216, 0.15135617119711364, 0.054747457235094985, -0.022179579639129168, -0.028589957572063313, 0.013652228133936474, 0.0052074803710851335, 0.37445261946744196, 0.004339799185101242, -0.27130708279470855, 0.5011250876275133, -0.27080600876989475, 0.18917000505914927, -0.05807126600775116, -0.9603681591641383, -0.8616159040655165, -1.4706161434498206, -0.5488273799966431, 0.6536313336321794, -0.1378747525728928, 0.7723208791384549, 0.5114953420273863, 0.9561105293310745, 0.7549135352899415, 0.64349001044658, 0.6386444769056774, 0.6898384958960226, 0.41008315703374415, 0.18431229430326382, 0.12118604279895788, 0.0022098341434094314, 0.005504309657165587, -0.03959989003124651, -0.011525336852613338, -0.03862448375986498, 0.13503962369499112, 0.19208467150450437, -0.4999862121969437, -0.17157789483181593, -0.22450316809677795, 0.1339318077899571, -0.9787122004870921, -1.0182829758594742, -1.2241162098775902, -0.8962142435604301, 0.235739669001019, 0.4729323920122179, 0.5177584617350319, -0.06052984313533924, -0.7872442881622361, 0.32743726329545525, 1.0868310834522832, 0.933480724518008, 0.7075666313452674, 0.4179159549271287, 0.5011803991566555, 0.20555805878647143, -0.07587841764213898, -0.13029125202634356, -0.04065547563887607, 0.07215031959602661, -0.03119107303950567, -0.05983097697981761, 0.028460597231000955, -0.7142669166435416, -1.2340993969410206, -1.3742387485288243, -0.6613629216365388, -0.4035840668766156, -0.3453899821175886, -0.6581849391173714, -0.9045183740837206, 0.6876759771933731, 0.3567871165768689, -0.02502406307303001, -0.07561189943567813, -1.104096027655915, -0.8009818859043317, 0.7050898105786285, 0.8130910838882711, 0.2874046018210282, -0.16352602061389127, 0.4278273545168093, 0.17841908709721152, -0.10372085814235563, -0.019956097352988696, -0.013084708438225026, -0.04109366346907349, 0.028233295924392797, -0.05037832507851357, -0.01564111771821056, 0.3627900487090565, -0.03997815826220147, 0.23321901789198007, -0.28031840604966773, -0.14775011824496742, -0.6871354927635455, -0.0071981891972632715, -0.49531062277285104, -1.3024332820887636, 1.02217843888686, 0.766954212088646, 0.08946703028418543, -0.4391016792850736, -0.9491097325522955, 0.41569576939179, -0.017030121536119127, -0.17346141653488495, -0.3504789981453824, -0.5218928761197907, -0.033377977872358675, -0.003699401425462032, -0.19914786771428214, -0.13727808364792687, -0.0891947839748891, 0.0830167710800246, -0.024078282136209415, -0.07073334097516663, 0.12233155654068184, 0.4703201709420717, 0.15860118939571696, 0.1368538429500477, -0.1216599608668686, 0.09021669139083993, 0.21447141085483054, 0.2983936320275462, -0.9661252012082627, -0.8872398551791447, 0.4233577617661411, 0.46578410028592465, -0.39487454488940554, -1.127529387067194, -0.9828172048789614, -0.17161104709180505, -1.345918967229384, -1.297569011134986, -0.8504560335493094, -0.18819453315187026, -0.30738461053351246, -0.13937555832353393, -0.24858946712414534, -0.09084403465908238, -0.00707530461190385, -0.031191361954397843, 0.018585080273171083, -0.08289186632095703, 0.21264483674808018, 0.4398943289280154, 0.37615979610094946, -0.05915610883522018, 0.09270868658552986, -0.6308026155807837, -0.7063542680438465, 0.0629589426953223, -0.03002786389218239, 0.27266707107054866, -0.41943852806054494, -0.533815239874838, -0.6236452139009893, -1.1672434303194852, -1.2492420988330388, -1.0383557102664411, -1.2027010016157258, -1.4251452401444777, -0.25189172422058725, 0.1563223357395898, -0.1567816713777214, 0.057019301909766194, 0.13248730266249445, 6.857148833407762e-05, -0.02996134118621654, 0.04012375537809497, 0.028191963528505684, 0.03527976120226472, 0.3102305886377703, 0.40150772831258974, 0.5802868099554278, -0.20456954024419371, -0.1333618559737002, -0.19774105155818747, -0.18194608396517822, 0.635765934444991, 0.361114864957931, -0.1682225744439889, -0.7765301905279995, -0.3815469223043808, -0.5387308863865614, -0.7401455415005515, -0.805087901761488, 0.16335482453855452, -1.3854889725609933, -0.7763531860302536, -0.11003540815548174, 0.6688540756754062, 0.13016259040135647, 0.08517938677891698, 0.2627544474605358, -0.024112665144415558, -0.042797994754364944, -0.013277441711611535, -0.05414156728864774, 0.020995543506579457, 0.3664608433563786, 0.12300312466296977, 0.4303758683169347, 0.3228651484712222, 0.03377481360702007, -0.0426340462375194, -0.5386907314006434, -0.04959070631394438, -0.07748947544568503, -0.2181124772590228, 0.3924821867612673, -0.008124913526310415, -0.747484459428249, -0.07950059828307199, 1.02801345616043, 0.7305797524961021, -0.18349983926157495, 0.4092132635583027, 0.40172612000201574, 0.8406779787870033, 0.33262077396827194, 0.11037319269692474, 0.322540193173584, -0.0057451615915878, -0.0818099686787266, 0.04877865278458868, 0.0158264187229028, 0.012557294034262149, 0.3650884414863548, 0.12741659706891192, 0.10080625898287834, 0.10692995033335412, 0.04096880715306801, 0.7072549562649008, 0.3320201208284155, 0.18944826334832068, 0.10589581645289342, -0.5097559617306974, 0.6704177042928522, 0.8596663482384321, 0.8730003450350982, 0.7709415394178947, 1.0290593585918653, -0.012825956122479425, -0.22734666953923943, 0.3107102381795144, 0.36896315409648894, 0.8740438208962584, 0.8167917956404545, 0.272010744556772, 0.2306430481555284, 0.05658854461990043, -0.04142221682118047, 0.031094948119058236, 0.062120551324478496, 0.060011593294582055, 0.09227675041108381, -0.012522939669648634, -0.11720425565985115, -0.04507574129398077, -0.3821679332355915, -0.2639503643261329, 0.23318094299706033, 0.3449289113582126, -0.05329310169095763, -0.7018205865505468, -0.0686619135504549, 0.5766307193627553, 0.1656682634337948, 0.04382862764161817, 0.41730742390221887, -0.5739242813223142, 0.10751682998156335, 0.11074028954430741, 0.13504293608736953, 0.24779458705893234, 0.4926350565122796, 0.43900676881820605, 0.09057387156932074, -0.04703265537551993, 0.04222668836827563, -0.014558072264704625, -0.04106455165124924, -0.015243589912470028, 0.11549818933270303, 0.07970237363224328, 0.22916366423855994, 0.3562426398505479, 0.3056905181224865, -0.012414698458267568, -0.005555671754457792, -0.22928048385617408, 0.4262967333608898, -0.10852203356802297, 0.27239495596402935, 0.1293287824992074, -0.4741069280243486, 0.007450790025490764, -0.12731817469462745, -0.305993500058534, -0.4888190919255611, 0.011715368740914176, -0.16756642850721873, 0.24091694683285828, 0.392783729052051, 0.3216869622688066, 0.1630761057895991, 0.015371281625044128, -0.014073938863064094, -0.05620625896700197, -0.0002403515552277168, -0.04119290280316359, 0.08075840133510385, -0.050083894271272245, 0.08596445373203297, 0.17217640809585416, 0.2490587899956736, -0.1777624705137475, -0.28720446913753667, -0.0037792737198302307, -0.03360003873650831, 0.9154565118016481, 0.5644182253072533, -0.7497518101653172, 0.14410006900009942, 0.9450670591409708, 0.1353273988038675, -0.4692350992580451, -0.3664406798999847, 0.06998890035251622, -0.006558374882518674, 0.36228493130949363, 0.2741711147413105, 0.1723904218797671, -0.033436472851704764, 0.0045785061845746156, -0.026895589801762012, -0.037896948606990256, 0.02173286891243263, 0.0334142453084388, -0.013107016412455251, -0.013686026495886051, 0.1490978129553617, 0.2138325345716542, 0.7616118792328878, 0.906843389917314, 0.26018470409303934, 0.37511071334163937, 0.526363021229552, 0.8903282782363979, 0.36999740293926203, 0.38208215672155155, 0.4484281445305141, -0.24457314193306606, -0.10488008593300877, 0.030110943883720105, -0.08935236552286382, 0.19062654247693964, 0.07147666892607529, 0.20273571159246828, 0.2494741065553341, -0.0018279254388878794, -0.0395018952880556, -0.026137889692839776, 0.03671352031268688, -0.010178150253143288, 0.022788405876461127, -0.01227274647870221, 0.015499788411399283, 0.07294362292747646, 0.12796887858812675, 0.3001365518572013, 0.3827747445493798, 0.6616624304408297, 0.5804422000785043, -0.15352908133807588, 0.272734537297295, 0.5412339218037209, 0.7306852850123707, 0.788318304914449, 0.13964348394338497, 0.8147083634401779, 0.8489244148823051, 0.9295515396313334, 0.7924966960573051, 0.3937997062365909, 0.08627173119702364, 0.09669912741179218, 0.09819633893648227, 0.047797495358495395, 0.019110798792064426, 0.03151531819537056, 0.02319597644884888, -0.01461050124986115, 0.025714609975336207, 0.04572869584841482, 0.001904936611569889, -0.04084234001290672, -0.05152321908922507, 0.14081963053337868, 0.10561770946359109, 0.19881686815282645, 0.29045143368848925, 0.5640698802498406, 0.5276515451747145, 0.4098758311062763, 0.36759999626454365, 0.5425483562967862, -0.016722675873078068, 0.023731098150735708, 0.36777760521508857, 0.4362400421681376, 0.18360044402552098, 0.21622834634804863, 0.17038882259445376, 0.08521487770454278, 0.048222076109486714, -0.04593076188812305, 0.02348749625856977, 0.013927207761621568, 0.0051600149638296195, 0.03985218893378255, -0.00835675761807955, -0.026564546257362584, 0.01461177637637397, 0.024074075861351886, -0.023455079417599462, -0.008307670059789756, 0.04545047968605998, -0.03167718136965135, 0.0792022888493457, 0.16179188832843353, 0.18963305204883182, 0.048795045135079804, -0.005575124313358552, 0.11931135098687762, 0.06001068429758368, 0.02424176811060697, 0.0325044227383923, 0.04049582467667823, 0.06939447055406577, -0.02003540998664505, -0.014389284989541621, -0.04347980797400215, -0.025295508687728376, 0.06056175139506594, -0.025242529759571995, 0.013263302887766676, 0.003468792049050635], [0.052107173962575276, -0.021625405557026155, 0.00565852651416043, 0.04088829870131549, 0.021368100730704484, -0.009127215268429764, 0.03084173116979809, 0.04528033473357913, 0.02339337648269152, 0.02375123687404654, 0.06384209475654867, -0.013291758924830456, -0.019476985785214777, -0.005041882830115423, -0.010004774570937682, -0.015160942472487239, 0.023431996122116647, 0.02097611838966774, -0.02101233833529122, -0.049512952013019015, 0.03132631717578965, -0.025650408657853008, 0.012694861869876855, 0.031581213706507565, 0.02164117170054925, 0.01413912336592415, -0.0353101296320473, -0.047091919396025375, -0.01242816932825485, -0.08818280744910457, -0.05512587125141209, -0.03211192995145042, 0.00044735259595428585, -0.03474898195208963, 0.016655759059517584, 0.015063688699268368, 0.08513245298756858, -0.020535358011734867, 0.0030852203656417665, 0.0068564846812381374, -0.0032687466912314977, -0.014335947461604586, 0.08967218760988979, 0.05619948864270983, 0.03983670202171215, -0.003184170089125038, 0.014886388024395075, 0.04384898318736903, -0.054596055609907504, 0.021789347534101996, 0.0019478459734149935, -0.0807651154701531, 0.00037211179920448943, -0.04561362415206864, -0.030854993751409363, 0.026337628344971033, -0.04070305445928461, -0.07649952985626639, -0.006848286601691295, -0.02255602006021767, 0.00214978777476368, -0.08537963722173457, 0.023516114934628768, 0.037011160457865795, 0.05757248482815443, -0.007564714824593082, 0.060685325697855244, 0.08450635622336079, 0.10915656469745258, 0.2008048447812501, 0.19313697145643474, 0.08840717230810403, 0.0026995849279971935, 0.0348959799769848, 0.1493958306578445, 0.11260072659032654, 0.16059626345108827, 0.04637620849418407, 0.00771464454490856, -0.012288439064019935, -0.041600825455785, 0.0019144787078594384, -0.026692822021994404, -0.07307043850600588, 0.017770672696390634, 0.08219803999504703, -0.010835879668146075, -0.03391068610740138, 0.015116120057458212, -0.014586272556322008, 0.07111735759530806, 0.15711750076853165, 0.2901070515003098, 0.1973212039895918, 0.3740044011076332, 0.5069611537203689, 0.5648622581523669, 0.528308308875058, 0.3738008219140549, 0.4963337066539493, 0.7234186659774634, 1.014853827087248, 0.7755341537733245, 0.2289425682287291, -0.09564485472699594, 0.004597978566451558, -0.09043347160557846, 0.1492572925030415, 0.12768319311567344, -0.032563387004005684, 0.010515351685769876, -0.05937504305067191, -0.022114051572786016, 0.027246201400127686, -0.012639817047586334, -0.0009494240043654928, 0.06306314085022817, 0.07605348299370761, 0.1763338600857031, 0.401783786599419, 0.549296457901306, 0.6504687485512504, 1.017194611058395, 0.7621206407644262, 0.7230917480750714, 0.4693309224183514, 0.47361044894633275, 0.09925656591958573, -0.5548387505810487, -0.7423617213024468, -0.7491143862366709, 0.24091192765879474, 0.11317081769227247, 0.49547324784079566, 0.23209136614534157, 0.2604000956232749, 0.21833905227491351, 0.015090664301417745, 0.07325817910435713, -0.017253161665672007, 0.028360181740288648, -0.03768569941356301, 0.038712546513806054, -0.0017839297746515715, 0.05855680990970935, -0.01393969937564723, -0.024686749067400066, 0.13456477133757305, 0.14856814679768143, 0.0035777653473499874, 0.33570394297098727, -0.02550601279480003, -0.558061397312102, -0.5149170171157276, 0.4299319548718288, -0.42592027219472567, 0.14911781592876927, 0.4478879570219976, 0.43454583649260525, 0.7442503929890231, 0.9652023974314757, 1.2166486086391373, 0.5310007269171662, 0.3226063520170309, 0.23916509043465564, -0.05243823166561964, 0.01342896517332515, -0.05951287658299774, 0.038026509132748305, 0.002481865233379016, 0.030823376319733857, 0.07342380996036886, -0.10262632852455253, -0.2442171462517883, -0.12350751168535178, -0.07896466801006582, 0.6853926346982301, 0.4828556903508431, 0.25441868654447025, 0.22271036935530872, -0.09944680392324684, -0.33162275163954774, 0.6395883250830656, 1.425553928039428, 0.8408969654750568, 1.758785346555181, 1.8255128973191497, 0.5452753100750226, 0.5046304647229161, 0.7179712770271026, -0.35957658885869503, 0.4358336151801832, 0.44527492315995937, 0.18950452661037603, -0.01751263430906754, -0.031168752937930932, -0.011980083436082183, 0.12058002747815981, -0.03195191944054955, 0.00828650785754561, 0.09508567250487279, -0.12995784566885257, 0.08082286436589166, 1.0790418495001108, 1.045872288287989, 0.6305794560763126, -0.03362253143251119, 0.032723122757349114, -0.6431238717038753, 0.37799005389883955, 0.5772780576089975, 0.563145596518592, -0.18093037527344874, 0.19263315829943423, 0.09841402423208706, -0.3388833202557227, -0.49437485301647455, -0.08848378859150342, -0.06344113879910428, -0.9406921388003003, -0.010860713136956053, 0.3935202371449585, 0.0012918271241329803, 0.009889297892832426, -0.04721928089241939, -0.0068370769212288485, -0.13068910004338857, -0.031507826651277104, 0.21320903037826314, 0.21522584147852578, -0.11805814554448131, 0.2640086753420932, 0.010780585571608643, 0.04807642540237897, 0.30384941245571495, -0.17657581872368827, -0.6252837550899645, -0.3620409320589365, -0.38598550419473476, -1.2822858646379092, -1.7466655827889543, -0.34190182534525304, -1.2396207103355685, -0.5017654348455033, -0.7773257777790012, -0.8821189399320244, 0.09712375596361285, -0.4717442237333868, -0.40049599774095235, -0.17344562991342682, 0.1329099237403716, -0.0717976706175041, -0.03522452473212631, 0.022409754196738695, -0.06953841097405264, 0.047500191126326134, 0.46526863096991194, 0.5813498239365906, -0.15046559317673802, 0.5199524833566748, -0.2420027489379667, -0.30740692492168364, 0.2636892263301499, -0.3777314421298042, -0.718511939765774, -0.24801765420850336, 0.568811082189046, -1.4628039662364298, -0.9704707665328519, -1.2913348914621618, -0.6023730435175387, -0.5423679573571191, -0.9162304826083739, -0.9348484886582923, -0.04818271939203673, -0.758103800470819, -0.5085798283738825, -0.3480882406345248, 0.06486651993721741, 0.0732896813670551, 0.04132211852216192, 0.008465232739489553, -0.23196899447614225, -0.06735810750175018, 0.3899610607820288, 0.5787301865223973, 0.19465727765182161, 0.06969987916450592, -0.08162822759079733, 0.37012854126259126, -0.7649692876589549, -1.0166560012576265, -1.1024535015591244, -0.7847968920820112, -0.404821642960898, -1.1294888597232846, -1.1826214281521605, -0.8052152177299449, -1.368556532803634, -0.5633083546895042, -1.2930926355569075, -1.1979656671418406, -0.4910292156269926, -0.3604298338865969, -0.3724288659232212, -0.3288569363358618, 0.052014478253511284, 0.05211094226146647, -0.018866158492278195, -0.058160687494843516, -0.17606971552312148, 0.09192721856161365, 0.40885337957167384, 0.245094633248681, -0.006535446042586727, -0.5807599479249719, 0.2518710364820907, -0.07213719907423834, -0.3415956018484249, -0.8152525993710946, -0.6399838947240486, 0.8321441606870189, 1.5515381132343222, 0.3918839314726694, 0.47856189729525206, -0.5283579956997227, -1.0170390643393223, -0.9171900829837462, -0.8917795165708791, -0.5145193427476041, 0.07544840086616326, -0.01328636414096595, 0.22835912022801086, 0.09899135089497009, 0.06773140963874771, 0.040547894654742705, 0.08561126326282462, -0.043044465694707726, -0.1457080823712754, 0.11203060928552766, 0.2623315291486528, 0.006907099556726087, 0.15580766162473478, -0.2013198779312501, 0.25151102753439797, 0.2764596748784428, -0.09197770619157628, -0.7774895040405755, -0.7948896399704749, 0.8840434723400301, 1.7261276392936709, 0.4710922566826376, 0.3483601874446794, -0.516968992195226, -0.3124460770653254, -0.4785514084245542, -0.8977909592686755, -0.3517895795767686, 0.28835061575189075, 0.3385748681886168, 0.28819336329980333, 0.19183870434152134, -0.03968070116664827, 0.06389794272435385, 0.08490105648195317, -0.04612215025843272, -0.014991147971598487, 0.23479203984295827, 0.09616205249251046, -0.22352174447149376, 0.0829209328016882, -1.1422133844235074, 0.13099988811116092, 0.21102553146281144, -0.2850603407148676, -0.7258754621478367, -1.0183367623198936, 0.19367575559391687, 1.3579902232114327, -0.03457706134911814, -0.7298957879410098, 0.10650509209801999, 0.8447212030132387, 0.00409813856749917, -0.22027291156752568, -0.6418677148955293, -0.4959825670117272, 0.5804023551411005, 0.09032085075392224, -0.07026837498278195, 0.05314567214796613, 0.0357831016177882, -0.0886946027953203, 0.04257289257025405, -0.14779761576767192, -0.05120156525753823, -0.18253227188248594, -0.5524421475429585, -0.2345365327465739, -0.6836167310979181, -0.5575590260394038, 0.7721378005959751, -0.4822134867861959, -0.11713719843000527, 0.01076698722220219, 0.13145886699655218, 1.4374546815441562, -0.3288567621191634, 0.5063861656362849, -0.3715416268881497, -0.4440803040095668, -0.22522166888684053, -1.301998385140287, -0.18472223292431889, 0.380101085776712, 0.29931609946832094, -0.051410613089328816, 0.08793641124386, 0.1895779691277016, -0.020580486145329917, -0.0656130338816533, 0.023659657404642705, -0.006052573381361092, -0.1959063693980657, 0.11104628440171914, -0.013811153511116364, 0.023611661627302737, -1.1990724445901333, -0.18287773580041622, 0.2933695942420735, -1.7854278376231463, -0.0755561142680877, -0.01999805386218211, 1.2827491787426766, 1.9326074316679758, 0.04658081503066834, 0.7421658755319308, -0.22664980574909002, -0.4171888799404123, -0.47827851409727945, -0.07632299811149523, 0.0357781136002651, 0.3665207835799646, 0.3581507854571319, 0.17234123037919102, 0.5898852014042638, 0.2601467937068139, 0.01264665813083205, 0.01837792208391446, 0.05514565492434403, 0.0453837719666572, 0.11642413877212854, -0.009736474456713265, -0.15243616667174742, -0.41626070201704907, -0.9223537428223783, -0.057899391129682475, 0.20509442931133812, -0.9182385395720823, -0.4992458644215262, 1.1372247272433775, 1.2975170836516101, 0.3091173076150372, 0.8600841168825537, -0.03987525188551331, -0.44287327536026605, 0.9496942979050592, -0.2451769555586324, 0.43509646332511437, 0.7125066059582735, -0.22181023118601867, 0.7644263495930639, 0.6340880070621492, 0.6515648174904772, 0.18258084997455537, -0.002148892756672276, -0.009820055441074395, -0.0008019092337960558, 0.1203434224743784, 0.24753520231336645, 0.06881582972522987, -0.41690867166963785, 0.29665491127455573, 0.01891759374974004, 0.741629097832881, 0.06715296367403485, -0.19296057105307665, 0.6162113369141153, 0.8842627378793896, 0.7674397435815468, 0.05151498304352915, 0.1871777976159337, -0.5272306524951521, -0.9721740316336104, 0.13419268722008448, 1.0239776269746328, 0.9435413478884872, 0.8547994137150108, 0.20049937345307292, 0.27684427475931844, 0.41636466999179106, 0.228118905112668, 0.12529278785814985, -0.012859393271121376, 0.0016307357087037744, 0.0322877693759899, 0.07766744168724503, 0.38838915286496867, 0.22369873538476376, 0.07456330568735649, -0.03034617134591861, 0.060707436558775085, -0.37193791143920946, -0.13319546138245672, 0.5488842323516437, 0.20489544904711132, 0.07310091769180883, 0.1520201475877464, -0.8772355518312629, 0.9421935468709574, 0.2784368423050007, -0.05812544257553376, 0.5460509476415242, 0.5733428012293342, -0.30194715029523334, 0.22692518885673496, 0.44431981991495656, 0.5246147146894546, 0.5974990349984963, 0.15292269564548505, -0.0007355697345860604, 0.0036351389581111256, 0.002275007571912295, -0.012997640475174375, -0.08352279325434228, 0.11162577817945248, 0.0261505693511335, 0.10435216336399138, -0.04247563864977327, -0.24905190859172172, -0.4940095256738747, 0.9599466259092836, 0.10016324994856184, 0.3597359322765498, -1.08840655299672, 0.24373410924500066, -0.3504711608791254, 0.5498157697176418, 0.6316780973045523, -0.2527169014198876, -0.08325790232943418, 0.033722088452987076, 0.5456642310326121, 0.6709896278432024, 0.6007314763054326, 0.6521263549115532, 0.26024157380699864, -0.02449357617507709, 0.009554643419750071, 0.06530684849096592, -0.016123816640026083, 0.07848957901186662, -0.00039036493426450076, 0.5424058146126178, 0.5833947258248314, 0.41338460202350386, 0.45821375530900565, 0.5986475228145237, 0.46587957358413856, 0.9017613725373751, 0.9193208250011496, -0.09086874474227596, 0.09929747409801576, 0.0669376132435062, 0.2873192259682485, 1.5015327388449577, 0.4090502598134092, 0.7629055514285752, 0.09507632360390061, 0.20739675955830766, 0.9455631956107305, 1.0165544452567712, 0.593391065409048, 0.4184214245149448, -0.015763891956020473, -0.08398123332784624, -0.025979710246508, -0.008313767819368535, -0.020432229352405736, 0.016312926444883045, 0.056053985928751666, 0.5164111492295568, 0.68982868411299, 0.6705423947684738, 0.5047430274811131, 1.0778641982829527, 0.5977710581325701, -0.23748473051431343, 0.1860859467660451, 0.185254529616053, 0.6992144371483128, 0.6647102723007604, 0.892822090992302, 0.19537709700353736, 0.38402200400264136, 1.1290634566895652, 0.09467210218275565, 0.2475002543527142, 0.5793330878919701, 0.8192701373040248, 0.34468043535884857, 0.30817041987415467, -0.011471321112944174, -0.049430975771602895, -0.008940048385259575, -0.04284850052080981, -0.020084864910655968, -0.006073195009594002, 0.035932376835292795, -0.03196580951408425, 0.595640667617055, 0.8784338901655901, 0.2033448765580935, 0.8681861248907716, -0.08549721724988106, -0.371904202907029, -0.5617271941875027, -0.2991850799607755, 0.1441414565456215, 0.4858049500351229, -0.6963333858050407, 0.47249759688427206, 0.6826277097692787, 0.8883286572739854, 0.3390289748297899, 0.36369242773173927, 0.2657735877498487, -0.020112946502631384, -0.13342608464314828, 0.08368632691736423, 0.10840635770087415, 0.004452369718442676, -0.05231653464860997, -0.0017385741911018274, 0.013713252998895748, 0.04783549910392127, 0.04214422251594478, -0.05631204547119626, 0.28536979488585973, 0.6124950197673045, 0.07820628983712997, -0.2831621828172013, -0.8099206611047036, 0.2804027619325687, 0.004685775401983114, -0.0167739404858601, 0.4483909594712883, -0.29276149141261776, -0.5318177528017103, -0.2646261817494915, -0.44428821754024567, -0.5926180086367182, 0.5400665207072248, 0.7521908905389697, -0.19411843736825884, -0.13116680249365356, 0.03246993861705866, -0.05718843084122599, -0.040697574267450395, -0.010429438263257885, 0.034044989956163035, -0.003163288590040484, -0.0225932281140521, -0.05440506218956876, 0.007022220361763702, 0.024718517796770874, 0.1266999925056651, 0.22933862623702267, 0.4711060150002646, 0.4277237693218427, 0.013502793619431634, 0.2297409726374693, -0.04593621891130178, 0.3990879094205276, 0.3624604090453921, -0.1202669912913324, -0.03164001905926098, -0.43207541823089035, -0.9471237738564029, -0.18587072764943646, 0.5433052735960856, 0.37552713299271345, -0.7187231159828282, -0.4960938865980427, -0.2021797245687931, -0.07860698773579569, 0.0536405638711118, -0.026405633202629702, 0.015636381176176502, 0.015466959772467946, 0.04283416683590703, 0.003348108474936003, -0.019147635752840998, -0.05806604769773688, 0.006723963757895054, 0.0551168170531168, -0.10597580236634657, 0.21804722212350588, 0.5346828292313961, 0.3862119765226212, 0.07389113250748312, -0.13284849849772093, -0.44013081255231423, -0.6852495591938675, 0.13092437643198718, -0.19059441424098914, 0.05124677760183612, 0.23098259691209286, 0.120856255297042, -0.00283729078175345, -0.32033622672524725, -0.5208667368093102, -0.4969087838773308, -0.30693693658956256, -0.1722119894741034, -0.05333078473990717, 0.021154105630260784, 0.014921488301653654, 0.06518066987843084, 0.017136347417771966, 0.006415545486656016, 0.05655054656654463, -0.0029268880902529916, -0.004067749826619015, -0.047296139329732256, -0.10874643163591685, -0.06842734289044416, 0.010252957422174578, -0.0011768460546075386, 0.11259935811980679, -0.054583874867557884, 0.060372480477137294, 0.02925531384898339, 0.10977977816583738, -0.018748906914793535, -0.2154659880019851, -0.025087623221693556, 0.0008024433435338241, -0.05209372524231492, 0.041993086448001676, 0.059195506290342724, -0.013105152025562108, -0.03816701871822187, 0.017285251626793643, 0.04348900841255581, -0.0540410313599366, 0.003253012013845249, 0.0038616188778809474, 0.019338781954824708, -0.04937945830008925, -0.03372138498922649, 0.022149832595992434, -0.027388872290256983, -0.020260601872070925, 0.008942141365283141, 0.025007869880102104, 0.03870322420828699, -0.03289831318282255, -0.07328369021558541, 0.001483479646194534, -0.016766488076458273, 0.015174337116478294, -0.030255486924110286, -0.00046894214334676585, -0.07590736554800849, -0.04494747290579657, 0.03980293157386984, 0.09737349076058241, 0.023346679025864785, -0.001732003641879579, -0.003485346174772723, 0.05534550825164951, -0.007998026237955582, 0.028461021333211194], [0.02512736940469624, -0.03389034364486017, -0.050888898066464246, -0.013238736836595844, 0.03277294838571806, 0.04758798098205493, -0.05165104233876211, -0.045810354186727825, -0.005039393049765596, -0.024508707942334125, -0.04675641678672638, 0.025006858802848513, 0.0037252904794224913, 0.013654592384878454, -0.053097284841350526, 0.0013977068930765108, 0.053998573010790855, 0.003034337358689754, -0.02271219235025668, 0.04186770481400241, -0.010604655663121427, -0.03419200461293025, 0.03707171425031396, 0.019823065663166307, -0.025019232641220284, -0.0460610640002732, 0.003408540579153234, -0.0007917102966588384, -0.03185507834900523, -0.0020009837038071944, -0.010851698480361997, 0.07276064435533589, 0.014928957375434473, 0.008501019569077017, -0.03233218834559473, -0.04717653650937674, 0.02030096880725052, 0.02926141478717545, -0.035168317051530264, -0.02616704012594876, -0.018930885541203746, -0.06247485257077875, 0.029101860021328998, -0.0008942040582837681, -0.02660478523806636, -0.018296220127505054, -0.03938923546550982, -0.009875150104530758, 0.023956948845997136, 0.03675674058216151, -0.05507272798506746, 0.0011027127137798868, -0.019813768762994073, 0.031832947327920275, -0.024982123709898125, -0.035083296865504286, 0.017510510489663726, -0.014683652315262957, -0.021486332392164013, -0.014394110041119908, 0.04747681549766467, 0.011322463789341925, -0.016937352630163282, -0.031558568521850086, -0.15479697475923818, -0.12453644725376148, 0.010626101117556684, 0.04188048726920143, 0.207898551427793, 0.3589570182445627, 0.06902335393657752, -0.05803658273141369, -0.362698789761767, -0.7145539104355377, -0.4923870208686645, -0.12346851493832443, -0.19990492953974065, -0.15193595370744004, -0.0767755986686794, 0.031521229789399904, 0.019683291118995107, 0.049716867398312194, 0.02741002059571475, -0.013950840273701208, -0.05399692474331354, 0.011492754230700597, -0.00611362207121809, -0.04054563358187983, -0.1022627456246942, -0.038328481907836595, 0.02691248182534504, 0.09533906770715242, 0.1442795560877645, -0.006028111215924993, 0.13929219081751681, 0.10698518550416547, 1.155646477567188, 0.4614853686661494, 0.39934929076303355, 1.4743270064732925, 0.6822517960582949, 0.2662988652531962, -0.03947926589178867, -0.19381732259299836, 0.33791432504572744, -0.12733047953425644, -0.09149838918278942, 0.0922045475748066, 0.15547105623462876, 0.03287421163138647, 0.028290746098375553, -0.027715326779256203, 0.03141186032205317, -0.0457692584542195, 0.030447987256722434, 0.04605662998255799, -0.06882515199044853, 0.12171981133501308, 0.4343200608267671, 0.228100930194184, 0.7433162721865397, -0.019271371693217458, -0.07619466732488736, 0.3388529591647528, 0.7868267262010095, 0.6492216514300321, -0.07138716051974413, 0.8987816135043436, 0.02925253811463343, 0.21150031383829157, 0.6117186193471844, 0.08791964810748064, -0.11739835748442959, 0.306081886449508, -0.036262120132388984, 0.10318060924271838, 0.4478233606288571, 0.02989306683004523, -0.08182610566008482, 0.046169811580345936, -0.019574110191140505, 0.03285126001080621, 0.04940128801685616, 0.05310986519241509, 0.09264866526165125, 0.49115657425026965, 0.652321756778396, 0.8155320395134273, 0.3821340760178198, 0.907370495237043, -0.029844833164204315, 1.0274072975487019, 0.3285898922433716, -0.07463927440959194, 0.22865435918943386, 0.31571625411042864, 0.008274334012995434, 0.20657233416037823, 1.107468269338183, 0.17585309128506785, -0.4490436482622954, 0.2921759902820358, 0.033122709219092716, -0.2645536632143069, 0.13555951185883575, -0.15224235181710893, -0.07248661992025472, 0.04229627219298008, 0.05956181698057309, 0.020079366487281196, 0.019082461074708686, 0.240444444244669, 0.43167482899047976, 0.36879245459612753, 0.6175601929102306, -0.09475387205926354, 0.2040606832985794, 0.8154759697462474, 0.5292319240653142, 0.6417659066095562, 0.27191830826332736, 0.6803733420040153, -0.33776188672830254, -0.570305335308955, 0.06950515571186547, -0.10790091135722468, 0.036875728143847944, -0.6180938840635289, -1.3294477780324734, -0.33620026712784423, -0.131694418729368, -0.5026877197410013, 0.015847838169195144, 0.02500109232564292, 0.12168245895141397, 0.014919344888207276, 0.025145814119305786, 0.0034835229593809, 0.03014591370628544, 0.5090870018929865, 0.7955118280900485, 0.15639526055001443, 0.23948896594492106, 0.055011335815525836, 0.10519314865930712, 0.04134227464840025, 0.10247793711173019, -0.13862352633820355, 0.09189620576381337, -0.6954187427363719, 0.023944385373413837, -0.998248647548693, -0.9611484488869209, -1.2219817818846603, -0.7212584472883334, -0.9490453622944871, -0.9025340529658588, -0.4756738731667458, 0.39772801591477547, 0.18684046594778886, 0.12004793870338766, 0.3335454505684413, 0.22067379507403287, 0.02901684925757842, 0.0015457544230909376, -0.08781746688168354, -0.049910143746261786, 0.35662195683638803, 0.50994997565903, -0.2379209989455749, -0.3221647888306191, -0.18539998802120067, -0.16667608984708612, -1.0015135927162513, -0.15832581044205565, -1.7007289883230234, -1.2888008824117498, -1.7687580605739366, -1.406377884723235, -0.13171818577543504, -1.248151848321657, -0.5169335280588461, 0.1107761842096856, -0.3977822224294964, -0.09819773556761574, 0.14047339143336557, 0.13122375379442833, 0.2336503762741042, 0.026075832677086103, 0.4070066442871213, 0.08158875820870486, 0.022230431519565646, 0.012100905682595482, -0.044694828234623354, 0.0209951454270114, 0.035019730269616654, 0.11768777232547728, -0.3112778274506515, -1.14520181643324, -1.1399062560715256, -1.3689902668531875, -2.131029646507846, -0.7440825516180212, -0.6865863498526572, -0.08893698035461932, -0.15158612666868312, 0.008057455760253324, 0.3065654030352477, -0.22771483731321587, 0.7885947244561134, -0.25441680021175056, -0.46933719731138357, -0.399425758402761, -0.4786178142061065, -0.6649677497209584, -0.4999245321940469, -0.13393769701682576, 0.352990191881923, 0.1421647313449659, -0.0168626086582425, 0.02403558456660897, -0.028063700630624817, 0.11267475457291416, 0.3451334602823804, -0.13927392020566756, -0.4431343106989737, -0.7005590381039901, -0.8925313499500515, -0.8226332554152003, 0.2753099667423216, 0.4906212780192876, 0.16526912247764783, 0.5978997240215281, 1.647603238758039, 1.2575236349822334, 0.24979831221814366, 1.0129494532679557, 0.14664759374357486, -0.7988543493531514, 0.13745607151820846, 0.5015319645666998, -0.48699183765277615, -0.7121089428892493, -0.5875599069169433, -0.16470442011582467, 0.3205905368441539, 0.013748115638460167, -0.023156343196797102, -0.026284234508929784, 0.00024730708088334635, 0.1962040871470353, 0.8036269714210564, 0.469185218776989, 0.049785786050599565, -0.19549911174763548, 0.1037641249151588, -0.01689701253298983, -0.0751487348295303, 0.07949157156884289, 0.8329595122396733, 1.30022819556487, 0.08900235797492613, 0.5997500711979269, 0.631514153844805, -0.5318011496312924, 0.5207119588664013, 0.6450807353785425, -0.5381296802476007, -0.5155534182593589, -0.3463645193711057, -0.6417134949115993, -0.6117334072212173, -0.11383880043602283, 0.08263361833272974, -0.005762497627384945, 0.03844361097286816, -0.024195679335844905, 0.0021046627629086813, 0.07399795962506389, 0.46002419294569047, 0.3692144488558793, 0.7333031615457251, -0.4126653552130588, 0.2124332505840821, 0.27945025584175204, 0.6556129695845335, 0.9348525126487559, -0.08419043316361027, 0.18935560814802724, 0.4972760646912807, 0.6091431107367872, 0.19147853424378858, 0.4071395623199888, 0.015657671798482896, 0.04526813443940276, -0.6568279222393667, -1.0851884425666032, -0.48365052630827143, -0.2814685923834473, -0.3151883078676038, -0.19694961730224975, 0.1620158122894485, 0.02338224001047742, -0.045399461132540626, 0.03418084289810478, 0.014373271070007592, -0.01233071008320253, 0.14376215739418277, 0.36095302330815476, 0.6410546497186141, -0.2210056462312689, 0.5556603391089437, 0.3661463897462799, 0.7785254960828356, 0.27706955104954695, 0.28994560319118434, 0.8835368803361118, 0.8778618180856407, 0.8603088775774156, -0.407446347411672, -0.046604734230333816, -0.12433968883471624, -0.5073297348861219, -0.1510533003444603, -0.18742798536656494, -0.27664655091168505, -0.07536704144808033, -0.05404192794979995, 0.2552864341136179, 0.16375126899159675, -0.04969585827031479, -0.11143788610940461, -0.012796761832521262, 0.005697106215820082, 0.0806558604673227, -0.047496480826196515, 0.3631794562189846, 0.22853346793702634, -0.657501184185364, -0.029990754687475724, -0.5911254511370411, -0.32697621399992643, -0.5875800867818963, 0.023640610977479944, 0.7733185331729278, -0.47461204806631163, -0.19954434018432302, -0.09420085406644817, -0.6230529415456434, -0.4593976482321101, -1.190746208683241, 0.06937348980254263, -0.3657199492859809, 0.048724324286478556, 0.0493025169948313, 0.34196715142188594, 0.42069926908231753, 0.23879513830773252, 0.032439801540062915, -0.026247401029631526, -0.025094577103267852, -0.027568839776917962, 0.07037483336000921, -0.02380111269809469, 1.3358600914030243, 0.38474782924541684, -0.2765801305993431, -0.3949916862551375, -1.2365074276829822, -1.3982873317101665, -2.4058638302484554, -1.9008824773518225, -1.1201495804044763, -0.518648386016121, -0.4734151845550939, 0.2629088963201809, 0.9394366257796591, 0.5023677551915805, -0.37220620786793235, 0.12338117004747749, 0.41790324422365566, -0.13781186243527122, 0.08103574770677535, 0.05060744684455421, 0.7006383691085526, 0.3906272716740617, 0.2742061789292052, -0.03550149288103838, -0.008705424196394425, 0.09397527030597413, 0.0658518609642791, 0.06297448774010085, 0.756352092699251, 0.06476817260905612, -0.12279103123208751, -0.5022761665876317, -0.8248702847437882, -1.1213259459751672, -1.7907536586880748, -1.6886390993603737, -2.4196647233158792, -1.4506666973010784, -0.8995741874856504, -0.31791815233827353, 0.4235171703668301, 0.10903544501475926, 0.9953229869413326, 0.3572966411213302, 0.7608952369346252, 0.534160621864889, 0.6311141930755068, -0.1399889354941481, 0.31810611334419947, -0.06432374049258899, 0.10374643430505534, -0.005189996672808438, 0.010001425816674169, -0.04344296442204398, 0.06866315489894485, 0.17370901279813455, 0.38091871840439884, 0.31287904716761156, 0.3502010734155972, -0.06693349286707559, 0.011235095160527557, -0.015729025425211922, 0.26891534792650534, -0.1674681770023588, -0.531703818936678, -1.2653882876676914, -0.7750757738658333, -0.3105827467253345, -0.4524444832817312, 0.15272098908258916, -0.5859932285806795, 0.18807062125494797, -0.25129420677110165, -0.3975356698246272, -0.4512382926811744, -0.06360673988917517, 0.16616974187218553, 0.10435775260283078, -0.0953539236332251, -0.061100284371153245, 0.08924270606058027, -0.020338114848687798, 0.049802941360450735, 0.02413525751465918, -0.26195918954677444, 1.1730638194257226, 0.5728162468340667, 0.4269978308214061, 0.9658140149462886, 0.9096975183481366, 0.257504399642099, 0.8662023795540534, 0.78815064240135, -0.1903045235105589, -0.5757860390998873, -0.2199366673177787, 0.2587075019788812, 0.23164930474585715, -0.6837280415742534, 1.0058106327464953, 0.5118497873960277, 0.1098412204361534, -0.14831403530452922, 0.06169696869152968, 0.6174049025301577, -0.059956639515597994, -0.006344543087771959, -0.06314703171524436, -0.07033389115777208, -0.002402860309451651, -0.06439395619043937, 0.05909352451955183, -0.3689612372221122, 0.3683278239247733, 0.5770121325735679, 0.3030465770091354, 0.5780496419389533, 0.2371527688596609, 0.11842052987493058, 1.1457631009948523, 2.0247433178888725, 0.519217230920099, -0.01942509290757381, -0.7958784446036874, -0.30186983593487293, 0.19091723768313312, -0.615141366822176, 0.35537587881415134, -0.09795644489845386, -0.16252780922016627, 0.31041379696966137, 0.3383357049663139, 0.400447453711763, -0.09625026611222402, -0.0026424649987533935, -0.020290009362092288, -0.006320644675085449, 0.017569565861629066, 0.04283876647418609, 0.18548238323285765, -0.23144173644428326, -0.3438854334214537, -0.08013541496649161, -0.660717282338504, 0.3625102880663981, 0.4040133240006119, -0.7311839819626491, -0.3662425682950346, -0.20397121057172177, -0.010928898206194465, -0.26528867676416823, -0.4028563073239298, -0.4010255900033732, -0.8141237764447073, -0.35290176876022195, -0.38292918906495177, -0.5715563505246415, -0.6701870573395616, 0.417846985530813, -0.07131265357764284, -0.07659563697582768, -0.18379603638312006, 0.025033651961988965, 0.05851603495162333, 0.05666286398309686, 0.0020856658715054832, 0.06372070288450904, 0.04981059361811354, 0.14174029589530152, -0.03660756965451176, -0.5233673386649476, -0.2416434979241624, 0.5724410422516608, 0.10921473245629919, -0.12320476171788591, -0.12015345528999066, -0.1846904943241778, 0.23328302200528298, -0.8460595958856879, -0.12869686756470283, -0.41122651826017037, -0.5808748724716782, -0.027574400302653648, -0.07655385872356789, -0.43184576173619, -0.32188847058606784, -0.3545910173188264, -0.24507893234367534, -0.1841408616080819, -0.033046830567553774, 0.021627555134816873, 0.008051860799156579, 0.014000477733475078, -0.05753769437867138, -0.016328522464770436, 0.062458635374269475, 0.07613476807572715, -0.12796132096120427, -0.11663129777598917, 0.46406776889451257, 0.5582568336866975, 0.31781082089136303, -0.40640781133106757, -0.1044504561719278, -0.7349902810534764, -0.4121016997537613, 0.07253121310059148, 0.3693832198498295, -0.2145310577156813, -0.3572643213090678, -0.42759009245530644, -0.7591466919831239, -0.08575370918887015, -0.5161609014431129, -0.34572043589307144, -0.17282664836017422, 0.01170990413970266, -0.014130691061617302, 0.01900156252823047, -0.07315259299112052, -0.002481754562069613, 0.05766902028639951, -0.05244070250159227, 0.19087650928330283, -0.00026610552686867145, 0.08702560073617463, 0.055843834131052664, 0.49424070345744797, 0.7368824429045857, 0.13942296088906866, -0.3002290416312874, 0.4271642993323213, 0.07036892635316572, 0.1501941006224126, 0.5454530025002167, -0.07715980123494104, -0.2314697899824998, -0.1000451089637397, -0.001663115057548051, -0.5333103913698636, -0.6237238596078857, -0.6429129429074139, -0.5718109882005359, -0.17228568066211447, 0.13458430270406385, 0.029640668466375912, 0.00972400196311429, 0.0008348579239913111, 0.01001108501258775, 0.04886568060054233, -0.04990007848037352, 0.07603192332608681, 0.12790069487700761, 0.2537857451581709, 0.38638582347381173, 0.13330212124114907, 0.045289029646969986, -0.38365470547476493, -0.32130288568781007, 0.508674189469864, -0.06069105124118548, 0.0160908658850051, 0.1599949335227418, -0.30550103728211536, 0.19587066591682045, 0.6253967360790347, -0.1623046133967575, -0.5045556488177453, -0.45169848232659954, -0.7416937102821439, -0.5347790697007353, -0.1113084381975307, -0.046908476747029096, -0.06103639168822687, 0.03309979183900043, -0.020734493037796335, 0.0012596887807017287, 0.007297087606057127, -0.06068668234988605, 0.012147135060772325, -0.012946654993434371, 0.15395397086391524, 0.04566341567532592, -0.0688644353778996, -0.6751116815705311, -0.7495130874866679, -0.22331686810309226, 0.3572922168871679, 0.3708326739652647, -0.12823602945031756, 0.3485639682284777, -0.15815949946038116, 0.9296892801443939, 0.5394430594824344, -0.2737325156477401, 0.0453524128632348, -0.1968565580565478, -0.2985061694129216, -0.18840859033132962, -0.27158707495647166, -0.038019669976873914, -0.013261130463977502, -0.008905393395336499, -0.0005340879676325257, -0.03664079800410044, -0.04874142795395334, -0.05337538243927254, 0.011544950041309478, -0.020275534135122845, -0.006161584081305528, 0.07252588275136283, 0.006859130620231225, -0.05095868312343563, -0.011757495025995228, -0.031117319872633616, 0.23769261572594325, 0.5746859330575792, 0.6951933894827216, 0.2830107606183769, 0.13318331443626505, -0.011636808074867774, 0.15039170563289944, -0.0420398079913824, 0.09327030549060976, -0.022368986252863907, 0.06008833105343879, -0.006176506582625255, -0.007387790772027337, -0.07282747764881518, 0.024088757589847194, 0.019345106196191255, 0.014663024700548397, -0.0034325274118964144, 0.011603260050733548, -0.00015110810827089705, 0.05046663857135086, 0.002601008201728313, -0.05637157117291394, -0.039929648942687246, -0.01721602481717236, -0.033127711656218285, -0.0038582271725738177, 0.005949307116348215, -0.023297517315682133, 0.014435164850005225, 0.04666746984001534, 0.09545095131239437, 0.00748431857338286, 0.014629811155695836, 0.046645424802519986, -0.034995827804078686, -0.0067515833308627125, -0.0248871286635065, 0.010524016416653202, -0.03037493952500949, 0.012489129668235873, 0.029889859236088636, 0.00012538934805969733, 0.014957245525986592, 0.012607124193288587], [-0.005508914536371775, -0.017221325870008887, 0.05138949285656444, -0.0014742399259089834, -0.01200037155857304, -0.006176680901317707, 0.054696317034871676, -0.03318220927524421, -0.01299132802145378, 0.03650687618153209, -0.005598361633773712, 0.06316601883580758, 0.04061833791182016, 0.01221234553186189, 0.013319462169633907, -0.018569707350599984, 0.028959834544469924, -0.03802152053601791, -0.04823447890703897, 0.023408661373936213, 0.07834798135494524, 0.05619291033862616, 0.035164587088249856, 0.01961899252584165, -0.028380661663312313, -0.019797898344071276, 0.010367584727709236, -0.02764832208208966, -0.01728948189910727, 0.043533203769880936, -0.07349259774592908, -0.01763554262486211, 0.06350930731591653, -0.007449380440414515, -0.02961195515170345, -0.02929025619747174, -0.02628347664116782, -0.05172501724092343, -0.04820670386795326, 0.06565450207776447, 0.0018609398949681847, -0.019782557840352943, 0.11474374425808402, 0.12966962039149854, -0.03117878480648728, -0.04058643653121324, 0.024598526870992215, 0.044507187876914045, 0.016838739991719587, -0.024651483064216127, -0.03557002725233862, -0.010076532662565677, -0.030671878958943022, 0.00999139813512021, -0.005592581783884726, -0.026667140023380567, -0.051581490618667084, -0.04800511845102104, 0.031321498305715435, 0.027910778400502344, -0.025748087502298653, -0.01378867911417444, -0.007460657768434532, 0.01166278127295887, 0.07346864061755062, 0.11061036526806783, 0.019365413680420985, 0.03795411527741232, 0.14646754967662157, 0.3656993300977644, 0.4081929580517958, 0.3632891406087591, 0.1558287096325373, 0.2298550224235836, 0.016547304726571125, -0.03507735401145092, 0.04043147956416213, 0.01942732886839302, -0.009382168726069054, -0.008771314798702452, 0.017279958496847367, 0.030403828003715605, 0.011467796999094188, 0.04754464020515245, 0.03279920259233067, 0.018573690832669004, -0.01681069738539826, -0.016521402480333198, 0.03332940943702759, -0.0075408369148791945, 0.09116563790494152, -0.16565302830695905, -0.32901443625946486, -0.16363288767556716, -0.27139071306134976, -0.21322774181455306, -0.08521195498556343, 0.18677010758588536, 0.12693404295155225, 0.16531711130404977, 0.4688693180307687, 0.10186049641522285, -0.2957040621602784, -0.05276871744449084, -0.05374104148718183, 0.27507008092196245, 0.20478991086798454, 0.12060640233488797, 0.06464538432602404, -0.1391529385992475, -0.06234480402484436, 0.001649133743905584, -0.0248740058786636, -0.008918076599959064, -0.020210470851825965, -0.009580712558761544, 0.014032675365603273, -0.20801947098257578, -0.24975139946000646, -0.524796605136502, -0.24038162172026425, -0.3322090791476729, -0.4288550280855703, -0.7115604893498817, -0.14183091243216664, -0.2042069698214224, -0.45824971634108574, -0.2449411981732758, 0.13537016490261966, 0.9176317594068976, -0.2495163142590452, -0.45059571150149386, -0.1941094868519343, 0.143915556048546, 0.18343416186392184, 0.15538585253181242, -0.4357225140312422, -0.29870584686583845, -0.08224567090477705, -0.0063204867553060574, 0.02068780560145054, 0.01971439717546296, 0.014692168316651915, -0.06745867757745777, -0.026959499093849912, -0.23206740893301453, -0.37277594914221307, -0.4748553983383772, -0.061148831356607154, -0.05299351405212739, -0.433804205399828, -0.5099927373728039, -0.17425740200910325, -0.05106897761186814, -0.3851947088480048, -0.47886966312277296, -0.6541890914747805, 0.0009915172048163394, 0.46898644521303806, 0.6157132625593523, 0.07733443837523798, 0.40927592557717957, 0.207660407216385, 0.5554850573297643, 0.1771992343262416, -0.018466795568495092, -0.11471922485142923, -0.017122163355515405, 0.01344355642399695, -0.005948761352150042, -0.12361503654910001, -0.16164997357465472, -0.1342486750364703, -0.2687448119815823, -0.14187267650336413, 0.025947330166155535, -0.27945222170392625, -0.28195136591008985, -1.0217017863986764, -0.18299792368923093, 0.18174719510951576, -0.13455465671890277, -0.17221126904775147, 0.7002819420060825, -0.8681404346600119, -0.7701145997649356, 0.04663941137606674, 0.13159692752623312, 0.266150615211073, 0.31982223458631864, 0.22185593589396962, -0.5677428215932482, -0.04670666974761212, -0.0043679970047113695, -0.19466879745769824, -0.026250496955175683, -0.009690029183192514, 0.010670593611993151, -0.051133887447425794, -0.24073286068786764, -0.43510670453663763, -0.24627720946689358, -0.07291333381657161, 0.36695156287705305, -0.5722330032939388, -0.022708990364573373, -0.2974814985057695, -0.1851007647519489, 0.2958932088406249, 0.13827718696618177, -0.2716279792875353, 0.8402847407118392, -0.6612855450373992, -0.5663829411303278, 0.2898733320756759, -0.4303370989776732, -0.43170974804747825, -0.46006126570851114, -0.13440709949067145, -0.5215013211806476, 0.18398262280572758, 0.09760618090996627, -0.126933320709887, -0.0452776932230605, -0.0392502567154444, 0.028378935349165774, -0.06244599249049496, -0.19665944925385234, -0.472759103145281, -0.21077621983599057, 0.2777986501486753, 0.5985237006756743, -0.15054346407835234, -0.6506668341981934, -0.5488565918094213, -0.47218611896593654, 1.2400009086081736, 1.1547798068370347, 0.09581981440111587, -0.1113143054237588, -1.1075356112357213, 0.1404759507751026, -0.3579631482627932, -0.4755476807584394, -0.925496990214478, -0.26083727015405034, 0.08126915643954856, 0.2595740788030145, 0.1609916549604951, 0.17704605477134755, 0.022200356813135577, -0.00017026050218821035, -0.06815391371610172, -0.07305642219195621, 0.04005771516587865, -0.16575466646444167, -0.33359040295426307, -0.18030500834020755, 0.06760473549873548, 0.0005214370247427494, -0.47585733852760265, -0.41226729296085224, -0.21465182133797447, 0.05758065594493348, 0.35576198531850955, 0.6498663230654373, 1.151778221086586, -0.1461635740971204, -0.23676337319071217, -0.5641567162229959, 0.18107848804862373, -0.5000217172658231, -0.487821747295505, -0.11215010424174811, -0.18019190469887583, 0.6091535986835767, -0.02046387468644002, -0.08548475813560409, -0.03592086303121046, -0.03011252296938173, -0.009569603839543054, -0.03243260083877905, -0.008839240035299279, -0.11390389126055847, -0.2982917757442384, -0.3973870509370085, -0.21754100388903944, 0.15031717205395384, -0.07459693785156123, 0.009283916659686642, 0.32408119442676186, -0.10546597002013856, -0.41389502162379427, 0.10694297085534575, 0.3991258356319376, -0.33558813670109006, -0.7663948080350381, -0.8009408855177225, -0.2065401386607713, -0.6523384632839624, -0.2472459532365142, 0.19503500285923, -0.16398674554019857, -0.03684005163739304, -0.6053605233509897, -0.5239790820902837, -0.16625990862827406, -0.059324368272882615, -0.017799408989878165, -0.012475541309388669, 0.0063696252756876275, -0.1728698916187298, -0.30171285214260457, -0.29995066796001996, -0.012726704878468793, 0.12454733087677056, -0.5489067838679093, 0.3031105852629428, -0.5132391857242964, -0.8106582276236934, -0.05837350741882617, 0.573723219778744, 0.7692603063583394, 0.04955773350657692, -0.4027594552097878, -0.7912416710901172, -0.2012885564128361, -0.5840748415639828, 0.11331382262180938, -0.282140032200129, -0.6244975886321811, -0.5848004147207372, -0.8156949512148983, -0.626410781431981, -0.2819515025597291, -0.051291213479460876, -0.022402908466299793, 0.006958095993803394, 0.003917142270174105, -0.019455289831565626, -0.20007277219398395, -0.2275510058342019, -0.12502817014069528, -0.6184165923442669, -0.17055822606236626, 0.6145288489169846, -0.586880273131653, 0.4121958528803589, -0.11659649474166933, 0.41037255109709025, 1.0015242411765108, 0.1186805128810049, -0.06454863821005433, 0.17075561014563304, 1.064834515874623, -0.14402488043565956, -0.2923483437925381, -0.3849448252597492, -0.10764477589422998, 0.08689556814025495, 0.19857605809633913, -0.1252462143499732, -0.17273384815027776, -0.05994820363860421, 0.007234402112273402, -0.013340517814685718, -0.04099741712882295, -0.03737270275996926, 0.0052487427261719765, -0.14596848487615732, -0.6693585033506466, -0.7450980668302971, -0.514605440196906, -0.0766257377063787, -0.020359263012474673, -0.014035383618474697, 0.0624182231802515, 0.16421592861260143, 0.6015243901044744, 0.008568113817633765, 0.5401598468642501, -0.10625072918817283, 0.3140890096574102, -0.01279138148446429, -0.12147483975259939, -0.7168678827314122, -0.3921102707675801, -0.06056300662691605, -0.028672404787974747, -0.129573976375965, -0.018223392130805857, 0.026623605796015973, 0.07133311485864925, -0.0016268142990672884, 0.055805114132555976, -0.032537744682585, -0.13449173227800965, -0.1602586364260397, -0.3520789210193758, -0.26820052721099896, -0.6659893743007569, -0.4598190399795996, -0.645548898894315, -0.36549589809172744, 0.2674856718923933, 0.6642762824644473, 0.3002725765330984, 0.47625906581524063, -0.5061213422834941, -1.173269770819646, -0.7466456536630274, 0.03454456871024744, -0.460241376210886, -1.170749088402467, -0.6752196334717463, -0.2397112056688693, 0.0496916979796218, 0.12872660358764523, 0.04853563377663098, -0.019063339620102062, 0.018277114514748907, 0.043384168489403845, 0.038216099615634214, 0.011664194732573793, -0.10854947376224718, -0.0687089711493623, -0.2213996496385027, -0.2063298347284815, -0.5541662487684971, -0.25911186879700415, -0.9252019755426569, 0.0775536767433579, 0.17092479038011416, 1.0721435061909692, 0.7048918594716055, 0.962218088766314, -0.5180046546927285, -1.4035489781778199, -0.6155860633698189, 0.049118954725511976, -0.99647947308504, -1.1177725589596819, -0.5875390767310297, 0.034991914460333985, 0.0834816567547306, 0.16246096190501016, 0.007016312143105179, 0.019227764220576062, 0.020216126656201164, -0.020773424820812396, -0.027706770547424264, -0.007650599496188885, 0.055796793658877256, -0.025704489470061258, -0.13629999595649278, -0.061990294243354484, -0.11221127839163429, 0.17818484538591578, -0.4456006979836991, 0.3300356064683946, 0.49193771155260924, 0.9787736922353406, 0.5539581246738554, -0.1264807489623594, -0.30193237339892603, -0.6918829044113517, -0.6244278891107299, -0.8263581954158812, -0.95209397070563, -1.2305072040063467, -0.4125208223148628, 0.06979674872768749, 0.06330326848505766, 0.2925559764424987, 0.0854660165015442, -0.0314190489824682, 0.02020383367100719, 0.06046041604278332, 0.039929055184090116, 0.02291516772652782, -0.03095446851123156, -0.16011955360789054, -0.45198319150317723, -0.39681822108979786, -0.25474343770250296, -0.2537731665961061, 0.4143799654065998, 0.728927819742796, 0.9459495815661111, 0.43760184466872004, 0.259106897520968, -1.5661288938671127, -0.9903535142187166, -0.9262309048901586, -0.345304854753281, -0.03300714904357661, 0.14879770675397566, -0.25911550389249904, 0.14571400074090332, 0.2455875768455694, 0.21671191261159028, 0.16830156893363998, 0.06261753210635981, 0.06911360453445192, -0.03296617557005265, 0.0012809002323754968, -0.05423557898991543, -0.05272578677576447, -0.17902062300575136, -0.5585746242613132, -0.6230628266215353, -0.319754905329566, -0.20522989420042076, 1.0631379300886437, 0.9258796075668546, 0.710186105130906, 0.3697054376196668, 0.2932364387058278, -0.46545181645542105, -1.3968636824734542, -0.6025459279933663, -0.42923365603987723, -0.19976721795941108, -0.063079901612691, 0.1037253601034253, 0.468669448468272, 0.37609447990233613, 0.5102258509421922, 0.2900398249501393, 0.20949517101465728, 0.08495282999582814, 0.0420021519517072, 0.00416970174199619, 0.02452167685119156, -0.04237076889768548, -0.200474623619608, -0.34381743590939895, -0.8484037611005931, -0.7606550939440798, -0.3716313638683252, 0.1724983606021536, 1.2986349898065017, 1.02813592049903, 0.8757484520025544, 1.0070517452101093, -0.27029815214119296, -1.133932659301418, -1.4214287300426292, 0.1996359477300301, 0.31912440534111125, -0.42032322464990796, -0.5600543652651795, -0.20124441503948143, 0.3669937913638971, 0.21936254818526335, 0.45718997648458426, 0.25077490105443406, 0.10755256555544077, 0.08307383303205522, 0.07509414803723233, -0.009401269009691009, 0.016514851676282857, -0.08102592803452596, -0.09412152984044912, -0.23367661786647642, -0.32840067021102143, -0.4532019896579731, -0.508211477685595, 0.11378833688512124, 0.30359219081275673, 0.8466645655644716, 1.4050610590567776, 1.2514579340271283, -0.8860289134591657, -1.2496665190625877, -0.47404279861815385, -0.06299665511753498, 0.5385985627505046, -0.10963831557630359, 0.03406747173159278, 0.04244018566981489, -0.11947085259392681, -0.18522726946900578, 0.06295730848859664, 0.0986967645370409, 0.11386883830104383, 0.006695200577272155, 0.01539217961242377, -0.00039550022585853464, -0.03380655762214308, 